digraph Tree {
node [shape=box, style="rounded", color="black", fontname="helvetica"] ;
edge [fontname="helvetica"] ;
0 [label="Item_Carrots and turnips <= 0.5\nsquared_error = 12108321572.4\nsamples = 9260\nvalue = 102311.2"] ;
1 [label="Item_Potatoes <= 0.5\nsquared_error = 7695261385.8\nsamples = 8283\nvalue = 83264.9"] ;
0 -> 1 [labeldistance=2.5, labelangle=45, headlabel="True"] ;
2 [label="Item_Cauliflowers and broccoli <= 0.5\nsquared_error = 5058389674.1\nsamples = 7268\nvalue = 65625.8"] ;
1 -> 2 ;
3 [label="Item_Onions, shallots, green <= 0.5\nsquared_error = 4155941069.5\nsamples = 6482\nvalue = 55248.3"] ;
2 -> 3 ;
4 [label="Item_Sweet potatoes <= 0.5\nsquared_error = 2617046112.5\nsamples = 6075\nvalue = 46954.2"] ;
3 -> 4 ;
5 [label="Item_Garlic <= 0.5\nsquared_error = 1646527180.8\nsamples = 5574\nvalue = 39615.5"] ;
4 -> 5 ;
6 [label="Item_Ginger <= 0.5\nsquared_error = 906163209.1\nsamples = 4795\nvalue = 31802.0"] ;
5 -> 6 ;
7 [label="Item_Maize <= 0.5\nsquared_error = 629440040.0\nsamples = 4586\nvalue = 29355.9"] ;
6 -> 7 ;
8 [label="Item_Wheat <= 0.5\nsquared_error = 273223635.6\nsamples = 3687\nvalue = 24637.2"] ;
7 -> 8 ;
9 [label="Item_Buckwheat <= 0.5\nsquared_error = 217003640.1\nsamples = 2780\nvalue = 21999.7"] ;
8 -> 9 ;
10 [label="Country_Switzerland <= 0.5\nsquared_error = 220356851.0\nsamples = 2509\nvalue = 23299.3"] ;
9 -> 10 ;
11 [label="Country_Netherlands <= 0.5\nsquared_error = 203328463.2\nsamples = 2450\nvalue = 22697.4"] ;
10 -> 11 ;
12 [label="Country_France <= 0.5\nsquared_error = 190001739.6\nsamples = 2410\nvalue = 22191.1"] ;
11 -> 12 ;
13 [label="Country_Ireland <= 0.5\nsquared_error = 177181462.4\nsamples = 2351\nvalue = 21675.5"] ;
12 -> 13 ;
14 [label="Country_New Zealand <= 0.5\nsquared_error = 154665954.3\nsamples = 2296\nvalue = 21182.6"] ;
13 -> 14 ;
15 [label="Country_Germany <= 0.5\nsquared_error = 142767812.6\nsamples = 2253\nvalue = 20683.4"] ;
14 -> 15 ;
16 [label="Country_Austria <= 0.5\nsquared_error = 128122398.4\nsamples = 2202\nvalue = 20151.2"] ;
15 -> 16 ;
17 [label="Item_Barley <= 0.5\nsquared_error = 117301598.5\nsamples = 2139\nvalue = 19601.4"] ;
16 -> 17 ;
18 [label="Country_Norway <= 0.5\nsquared_error = 78630288.9\nsamples = 1361\nvalue = 17392.4"] ;
17 -> 18 ;
19 [label="Country_Chile <= 0.5\nsquared_error = 68371732.1\nsamples = 1331\nvalue = 16925.9"] ;
18 -> 19 ;
20 [label="Country_Finland <= 0.5\nsquared_error = 62044043.2\nsamples = 1306\nvalue = 16608.8"] ;
19 -> 20 ;
21 [label="Pesticides (tonnes) <= 0.9\nsquared_error = 59763397.8\nsamples = 1276\nvalue = 16338.3"] ;
20 -> 21 ;
22 [label="Year <= 0.6\nsquared_error = 57537787.8\nsamples = 1259\nvalue = 16124.9"] ;
21 -> 22 ;
23 [label="Country_Mexico <= 0.5\nsquared_error = 53404405.9\nsamples = 689\nvalue = 14767.9"] ;
22 -> 23 ;
24 [label="Country_Slovenia <= 0.5\nsquared_error = 49179110.5\nsamples = 676\nvalue = 14537.5"] ;
23 -> 24 ;
25 [label="Pesticides (tonnes) <= 0.0\nsquared_error = 47573990.5\nsamples = 652\nvalue = 14258.2"] ;
24 -> 25 ;
26 [label="Country_Hungary <= 0.5\nsquared_error = 48033783.8\nsamples = 510\nvalue = 13583.3"] ;
25 -> 26 ;
27 [label="Item_Hops <= 0.5\nsquared_error = 46389718.3\nsamples = 498\nvalue = 13389.5"] ;
26 -> 27 ;
28 [label="Country_Poland <= 0.5\nsquared_error = 45384821.6\nsamples = 417\nvalue = 13957.0"] ;
27 -> 28 ;
29 [label="Country_Ecuador <= 0.5\nsquared_error = 43774962.1\nsamples = 406\nvalue = 13704.0"] ;
28 -> 29 ;
30 [label="Country_Morocco <= 0.5\nsquared_error = 43099774.3\nsamples = 390\nvalue = 13968.8"] ;
29 -> 30 ;
31 [label="Country_Tunisia <= 0.5\nsquared_error = 43487141.8\nsamples = 369\nvalue = 14307.7"] ;
30 -> 31 ;
32 [label="Year <= 0.4\nsquared_error = 42000054.4\nsamples = 363\nvalue = 14464.9"] ;
31 -> 32 ;
33 [label="Country_Georgia <= 0.5\nsquared_error = 37010825.4\nsamples = 260\nvalue = 13684.7"] ;
32 -> 33 ;
34 [label="Country_Peru <= 0.5\nsquared_error = 35610740.3\nsamples = 249\nvalue = 13973.3"] ;
33 -> 34 ;
35 [label="Pesticides (tonnes) <= 0.0\nsquared_error = 35336852.5\nsamples = 239\nvalue = 14239.3"] ;
34 -> 35 ;
36 [label="Pesticides (tonnes) <= 0.0\nsquared_error = 36829385.9\nsamples = 171\nvalue = 15050.5"] ;
35 -> 36 ;
37 [label="Country_Latvia <= 0.5\nsquared_error = 24875985.7\nsamples = 102\nvalue = 13365.5"] ;
36 -> 37 ;
38 [label="Country_Kyrgyzstan <= 0.5\nsquared_error = 24216960.3\nsamples = 93\nvalue = 12804.2"] ;
37 -> 38 ;
39 [label="Country_Zimbabwe <= 0.5\nsquared_error = 22798174.5\nsamples = 83\nvalue = 12275.2"] ;
38 -> 39 ;
40 [label="Pesticides (tonnes) <= 0.0\nsquared_error = 21060532.5\nsamples = 81\nvalue = 11922.7"] ;
39 -> 40 ;
41 [label="Pesticides (tonnes) <= 0.0\nsquared_error = 27277458.6\nsamples = 37\nvalue = 13797.3"] ;
40 -> 41 ;
42 [label="Pesticides (tonnes) <= 0.0\nsquared_error = 21219291.7\nsamples = 16\nvalue = 10575.6"] ;
41 -> 42 ;
43 [label="Item_Rye <= 0.5\nsquared_error = 21593562.4\nsamples = 8\nvalue = 13433.3"] ;
42 -> 43 ;
44 [label="Year <= 0.1\nsquared_error = 3861569.2\nsamples = 5\nvalue = 9366.7"] ;
43 -> 44 ;
45 [label="squared_error = 0.0\nsamples = 1\nvalue = 11860.0"] ;
44 -> 45 ;
46 [label="Pesticides (tonnes) <= 0.0\nsquared_error = 1129820.5\nsamples = 4\nvalue = 8120.0"] ;
44 -> 46 ;
47 [label="squared_error = 0.0\nsamples = 2\nvalue = 7500.0"] ;
46 -> 47 ;
48 [label="Pesticides (tonnes) <= 0.0\nsquared_error = 1490841.0\nsamples = 2\nvalue = 8740.0"] ;
46 -> 48 ;
49 [label="squared_error = 0.0\nsamples = 1\nvalue = 9961.0"] ;
48 -> 49 ;
50 [label="squared_error = 0.0\nsamples = 1\nvalue = 7519.0"] ;
48 -> 50 ;
51 [label="Year <= 0.2\nsquared_error = 6250000.0\nsamples = 3\nvalue = 17500.0"] ;
43 -> 51 ;
52 [label="squared_error = 0.0\nsamples = 1\nvalue = 15000.0"] ;
51 -> 52 ;
53 [label="squared_error = 0.0\nsamples = 2\nvalue = 20000.0"] ;
51 -> 53 ;
54 [label="Pesticides (tonnes) <= 0.0\nsquared_error = 6377223.1\nsamples = 8\nvalue = 7937.8"] ;
42 -> 54 ;
55 [label="Item_Oats <= 0.5\nsquared_error = 2875323.0\nsamples = 2\nvalue = 6118.0"] ;
54 -> 55 ;
56 [label="squared_error = 0.0\nsamples = 1\nvalue = 9055.0"] ;
55 -> 56 ;
57 [label="squared_error = 0.0\nsamples = 1\nvalue = 5139.0"] ;
55 -> 57 ;
58 [label="Year <= 0.1\nsquared_error = 5807683.4\nsamples = 6\nvalue = 8746.6"] ;
54 -> 58 ;
59 [label="Item_Oats <= 0.5\nsquared_error = 3827892.2\nsamples = 2\nvalue = 5543.5"] ;
58 -> 59 ;
60 [label="squared_error = 0.0\nsamples = 1\nvalue = 3587.0"] ;
59 -> 60 ;
61 [label="squared_error = 0.0\nsamples = 1\nvalue = 7500.0"] ;
59 -> 61 ;
62 [label="Year <= 0.4\nsquared_error = 2604518.2\nsamples = 4\nvalue = 9661.7"] ;
58 -> 62 ;
63 [label="Item_Oats <= 0.5\nsquared_error = 959792.9\nsamples = 3\nvalue = 10206.7"] ;
62 -> 63 ;
64 [label="Year <= 0.2\nsquared_error = 956484.0\nsamples = 2\nvalue = 10608.0"] ;
63 -> 64 ;
65 [label="squared_error = 0.0\nsamples = 1\nvalue = 11586.0"] ;
64 -> 65 ;
66 [label="squared_error = 0.0\nsamples = 1\nvalue = 9630.0"] ;
64 -> 66 ;
67 [label="squared_error = 0.0\nsamples = 1\nvalue = 9404.0"] ;
63 -> 67 ;
68 [label="squared_error = 0.0\nsamples = 1\nvalue = 6392.0"] ;
62 -> 68 ;
69 [label="Pesticides (tonnes) <= 0.0\nsquared_error = 16469072.7\nsamples = 21\nvalue = 16482.0"] ;
41 -> 69 ;
70 [label="Pesticides (tonnes) <= 0.0\nsquared_error = 13032906.1\nsamples = 19\nvalue = 15425.2"] ;
69 -> 70 ;
71 [label="Year <= 0.3\nsquared_error = 7643033.2\nsamples = 9\nvalue = 19052.4"] ;
70 -> 71 ;
72 [label="Year <= 0.2\nsquared_error = 2597910.2\nsamples = 6\nvalue = 20592.3"] ;
71 -> 72 ;
73 [label="squared_error = 0.0\nsamples = 1\nvalue = 23782.0"] ;
72 -> 73 ;
74 [label="Pesticides (tonnes) <= 0.0\nsquared_error = 1052563.6\nsamples = 5\nvalue = 20060.7"] ;
72 -> 74 ;
75 [label="Item_Oats <= 0.5\nsquared_error = 847139.2\nsamples = 3\nvalue = 19567.2"] ;
74 -> 75 ;
76 [label="Year <= 0.2\nsquared_error = 473688.9\nsamples = 2\nvalue = 19162.3"] ;
75 -> 76 ;
77 [label="squared_error = 0.0\nsamples = 1\nvalue = 18189.0"] ;
76 -> 77 ;
78 [label="squared_error = 0.0\nsamples = 1\nvalue = 19649.0"] ;
76 -> 78 ;
79 [label="squared_error = 0.0\nsamples = 1\nvalue = 20782.0"] ;
75 -> 79 ;
80 [label="Item_Rye <= 0.5\nsquared_error = 2652.2\nsamples = 2\nvalue = 21047.5"] ;
74 -> 80 ;
81 [label="squared_error = 0.0\nsamples = 1\nvalue = 21099.0"] ;
80 -> 81 ;
82 [label="squared_error = 0.0\nsamples = 1\nvalue = 20996.0"] ;
80 -> 82 ;
83 [label="Item_Oats <= 0.5\nsquared_error = 971946.9\nsamples = 3\nvalue = 15459.3"] ;
71 -> 83 ;
84 [label="Pesticides (tonnes) <= 0.0\nsquared_error = 961380.2\nsamples = 2\nvalue = 15052.5"] ;
83 -> 84 ;
85 [label="squared_error = 0.0\nsamples = 1\nvalue = 16033.0"] ;
84 -> 85 ;
86 [label="squared_error = 0.0\nsamples = 1\nvalue = 14072.0"] ;
84 -> 86 ;
87 [label="squared_error = 0.0\nsamples = 1\nvalue = 16273.0"] ;
83 -> 87 ;
88 [label="Year <= 0.4\nsquared_error = 2007410.3\nsamples = 10\nvalue = 13007.0"] ;
70 -> 88 ;
89 [label="Year <= 0.3\nsquared_error = 1933172.6\nsamples = 9\nvalue = 13233.0"] ;
88 -> 89 ;
90 [label="Year <= 0.2\nsquared_error = 843815.6\nsamples = 6\nvalue = 12645.4"] ;
89 -> 90 ;
91 [label="squared_error = 0.0\nsamples = 1\nvalue = 14106.0"] ;
90 -> 91 ;
92 [label="Pesticides (tonnes) <= 0.0\nsquared_error = 388096.9\nsamples = 5\nvalue = 12280.2"] ;
90 -> 92 ;
93 [label="Item_Rye <= 0.5\nsquared_error = 45497.0\nsamples = 3\nvalue = 11982.6"] ;
92 -> 93 ;
94 [label="Year <= 0.2\nsquared_error = 0.2\nsamples = 2\nvalue = 12089.2"] ;
93 -> 94 ;
95 [label="squared_error = 0.0\nsamples = 1\nvalue = 12090.0"] ;
94 -> 95 ;
96 [label="squared_error = 0.0\nsamples = 1\nvalue = 12089.0"] ;
94 -> 96 ;
97 [label="squared_error = 0.0\nsamples = 1\nvalue = 11556.0"] ;
93 -> 97 ;
98 [label="Item_Oats <= 0.5\nsquared_error = 565338.9\nsamples = 2\nvalue = 12776.3"] ;
92 -> 98 ;
99 [label="squared_error = 0.0\nsamples = 1\nvalue = 13308.0"] ;
98 -> 99 ;
100 [label="squared_error = 0.0\nsamples = 1\nvalue = 11713.0"] ;
98 -> 100 ;
101 [label="Item_Oats <= 0.5\nsquared_error = 577074.9\nsamples = 3\nvalue = 15191.7"] ;
89 -> 101 ;
102 [label="Pesticides (tonnes) <= 0.0\nsquared_error = 420552.2\nsamples = 2\nvalue = 14806.5"] ;
101 -> 102 ;
103 [label="squared_error = 0.0\nsamples = 1\nvalue = 14158.0"] ;
102 -> 103 ;
104 [label="squared_error = 0.0\nsamples = 1\nvalue = 15455.0"] ;
102 -> 104 ;
105 [label="squared_error = 0.0\nsamples = 1\nvalue = 15962.0"] ;
101 -> 105 ;
106 [label="squared_error = 0.0\nsamples = 1\nvalue = 11538.0"] ;
88 -> 106 ;
107 [label="Item_Rye <= 0.5\nsquared_error = 142581.8\nsamples = 2\nvalue = 21766.2"] ;
69 -> 107 ;
108 [label="squared_error = 0.0\nsamples = 1\nvalue = 21955.0"] ;
107 -> 108 ;
109 [label="squared_error = 0.0\nsamples = 1\nvalue = 21011.0"] ;
107 -> 109 ;
110 [label="Country_Lithuania <= 0.5\nsquared_error = 11886712.2\nsamples = 44\nvalue = 10529.4"] ;
40 -> 110 ;
111 [label="Country_Lebanon <= 0.5\nsquared_error = 6904457.9\nsamples = 38\nvalue = 9616.6"] ;
110 -> 111 ;
112 [label="Pesticides (tonnes) <= 0.0\nsquared_error = 2952985.2\nsamples = 32\nvalue = 8672.0"] ;
111 -> 112 ;
113 [label="Year <= 0.2\nsquared_error = 17546.9\nsamples = 2\nvalue = 10565.7"] ;
112 -> 113 ;
114 [label="squared_error = 0.0\nsamples = 1\nvalue = 10472.0"] ;
113 -> 114 ;
115 [label="squared_error = 0.0\nsamples = 1\nvalue = 10753.0"] ;
113 -> 115 ;
116 [label="Country_Kenya <= 0.5\nsquared_error = 2899719.5\nsamples = 30\nvalue = 8556.1"] ;
112 -> 116 ;
117 [label="Pesticides (tonnes) <= 0.0\nsquared_error = 2754308.8\nsamples = 29\nvalue = 8491.3"] ;
116 -> 117 ;
118 [label="Year <= 0.4\nsquared_error = 9661196.8\nsamples = 3\nvalue = 7234.0"] ;
117 -> 118 ;
119 [label="squared_error = 0.0\nsamples = 1\nvalue = 9174.0"] ;
118 -> 119 ;
120 [label="Item_Rye <= 0.5\nsquared_error = 11920216.9\nsamples = 2\nvalue = 5940.7"] ;
118 -> 120 ;
121 [label="squared_error = 0.0\nsamples = 1\nvalue = 1058.0"] ;
120 -> 121 ;
122 [label="squared_error = 0.0\nsamples = 1\nvalue = 8382.0"] ;
120 -> 122 ;
123 [label="Item_Rye <= 0.5\nsquared_error = 1746003.7\nsamples = 26\nvalue = 8637.5"] ;
117 -> 123 ;
124 [label="Pesticides (tonnes) <= 0.0\nsquared_error = 1789474.5\nsamples = 21\nvalue = 8801.9"] ;
123 -> 124 ;
125 [label="Pesticides (tonnes) <= 0.0\nsquared_error = 834844.2\nsamples = 8\nvalue = 9371.6"] ;
124 -> 125 ;
126 [label="Year <= 0.1\nsquared_error = 659226.3\nsamples = 7\nvalue = 9147.2"] ;
125 -> 126 ;
127 [label="Year <= 0.0\nsquared_error = 71190.2\nsamples = 2\nvalue = 10188.7"] ;
126 -> 127 ;
128 [label="squared_error = 0.0\nsamples = 1\nvalue = 10566.0"] ;
127 -> 128 ;
129 [label="squared_error = 0.0\nsamples = 1\nvalue = 10000.0"] ;
127 -> 129 ;
130 [label="Year <= 0.1\nsquared_error = 320446.2\nsamples = 5\nvalue = 8756.6"] ;
126 -> 130 ;
131 [label="squared_error = 0.0\nsamples = 1\nvalue = 7612.0"] ;
130 -> 131 ;
132 [label="Pesticides (tonnes) <= 0.0\nsquared_error = 152319.6\nsamples = 4\nvalue = 8920.1"] ;
130 -> 132 ;
133 [label="squared_error = 0.0\nsamples = 1\nvalue = 8000.0"] ;
132 -> 133 ;
134 [label="Year <= 0.2\nsquared_error = 13077.2\nsamples = 3\nvalue = 9073.5"] ;
132 -> 134 ;
135 [label="squared_error = 0.0\nsamples = 1\nvalue = 9259.0"] ;
134 -> 135 ;
136 [label="Pesticides (tonnes) <= 0.0\nsquared_error = 7434.2\nsamples = 2\nvalue = 9036.4"] ;
134 -> 136 ;
137 [label="squared_error = 0.0\nsamples = 1\nvalue = 9142.0"] ;
136 -> 137 ;
138 [label="squared_error = 0.0\nsamples = 1\nvalue = 8966.0"] ;
136 -> 138 ;
139 [label="squared_error = 0.0\nsamples = 1\nvalue = 10606.0"] ;
125 -> 139 ;
140 [label="Pesticides (tonnes) <= 0.0\nsquared_error = 2041888.8\nsamples = 13\nvalue = 8479.9"] ;
124 -> 140 ;
141 [label="squared_error = 0.0\nsamples = 1\nvalue = 4328.0"] ;
140 -> 141 ;
142 [label="Pesticides (tonnes) <= 0.0\nsquared_error = 1315539.8\nsamples = 12\nvalue = 8668.6"] ;
140 -> 142 ;
143 [label="Year <= 0.0\nsquared_error = 553905.7\nsamples = 8\nvalue = 8198.1"] ;
142 -> 143 ;
144 [label="squared_error = 0.0\nsamples = 1\nvalue = 10012.0"] ;
143 -> 144 ;
145 [label="Pesticides (tonnes) <= 0.0\nsquared_error = 323963.0\nsamples = 7\nvalue = 8058.6"] ;
143 -> 145 ;
146 [label="Country_Algeria <= 0.5\nsquared_error = 290964.4\nsamples = 4\nvalue = 8623.0"] ;
145 -> 146 ;
147 [label="Pesticides (tonnes) <= 0.0\nsquared_error = 82267.7\nsamples = 3\nvalue = 8860.2"] ;
146 -> 147 ;
148 [label="squared_error = 0.0\nsamples = 1\nvalue = 8462.0"] ;
147 -> 148 ;
149 [label="Year <= 0.2\nsquared_error = 39200.0\nsamples = 2\nvalue = 8993.0"] ;
147 -> 149 ;
150 [label="squared_error = 0.0\nsamples = 1\nvalue = 8853.0"] ;
149 -> 150 ;
151 [label="squared_error = 0.0\nsamples = 1\nvalue = 9273.0"] ;
149 -> 151 ;
152 [label="squared_error = 0.0\nsamples = 1\nvalue = 7674.0"] ;
146 -> 152 ;
153 [label="Country_Cyprus <= 0.5\nsquared_error = 21080.1\nsamples = 3\nvalue = 7705.9"] ;
145 -> 153 ;
154 [label="squared_error = 0.0\nsamples = 1\nvalue = 7506.0"] ;
153 -> 154 ;
155 [label="Year <= 0.1\nsquared_error = 10351.2\nsamples = 2\nvalue = 7772.5"] ;
153 -> 155 ;
156 [label="squared_error = 0.0\nsamples = 1\nvalue = 8000.0"] ;
155 -> 156 ;
157 [label="squared_error = 0.0\nsamples = 1\nvalue = 7727.0"] ;
155 -> 157 ;
158 [label="Pesticides (tonnes) <= 0.0\nsquared_error = 1583290.4\nsamples = 4\nvalue = 9491.9"] ;
142 -> 158 ;
159 [label="Pesticides (tonnes) <= 0.0\nsquared_error = 1081711.0\nsamples = 2\nvalue = 10214.2"] ;
158 -> 159 ;
160 [label="squared_error = 0.0\nsamples = 1\nvalue = 9365.0"] ;
159 -> 160 ;
161 [label="squared_error = 0.0\nsamples = 1\nvalue = 11488.0"] ;
159 -> 161 ;
162 [label="Pesticides (tonnes) <= 0.0\nsquared_error = 100352.0\nsamples = 2\nvalue = 8288.0"] ;
158 -> 162 ;
163 [label="squared_error = 0.0\nsamples = 1\nvalue = 8512.0"] ;
162 -> 163 ;
164 [label="squared_error = 0.0\nsamples = 1\nvalue = 7840.0"] ;
162 -> 164 ;
165 [label="Pesticides (tonnes) <= 0.0\nsquared_error = 668348.4\nsamples = 5\nvalue = 7791.9"] ;
123 -> 165 ;
166 [label="Pesticides (tonnes) <= 0.0\nsquared_error = 360385.2\nsamples = 3\nvalue = 8197.0"] ;
165 -> 166 ;
167 [label="squared_error = 0.0\nsamples = 1\nvalue = 7513.0"] ;
166 -> 167 ;
168 [label="Pesticides (tonnes) <= 0.0\nsquared_error = 80802.0\nsamples = 2\nvalue = 8653.0"] ;
166 -> 168 ;
169 [label="squared_error = 0.0\nsamples = 1\nvalue = 8854.0"] ;
168 -> 169 ;
170 [label="squared_error = 0.0\nsamples = 1\nvalue = 8251.0"] ;
168 -> 170 ;
171 [label="Pesticides (tonnes) <= 0.0\nsquared_error = 2025.0\nsamples = 2\nvalue = 6779.0"] ;
165 -> 171 ;
172 [label="squared_error = 0.0\nsamples = 1\nvalue = 6734.0"] ;
171 -> 172 ;
173 [label="squared_error = 0.0\nsamples = 1\nvalue = 6824.0"] ;
171 -> 173 ;
174 [label="squared_error = 0.0\nsamples = 1\nvalue = 11667.0"] ;
116 -> 174 ;
175 [label="Year <= 0.1\nsquared_error = 1427333.4\nsamples = 6\nvalue = 14081.9"] ;
111 -> 175 ;
176 [label="Year <= 0.0\nsquared_error = 22050.0\nsamples = 2\nvalue = 15999.0"] ;
175 -> 176 ;
177 [label="squared_error = 0.0\nsamples = 1\nvalue = 15789.0"] ;
176 -> 177 ;
178 [label="squared_error = 0.0\nsamples = 1\nvalue = 16104.0"] ;
176 -> 178 ;
179 [label="Pesticides (tonnes) <= 0.0\nsquared_error = 59270.2\nsamples = 4\nvalue = 13363.0"] ;
175 -> 179 ;
180 [label="Year <= 0.2\nsquared_error = 1489.4\nsamples = 3\nvalue = 13272.0"] ;
179 -> 180 ;
181 [label="squared_error = 0.0\nsamples = 1\nvalue = 13247.0"] ;
180 -> 181 ;
182 [label="Year <= 0.2\nsquared_error = 1530.9\nsamples = 2\nvalue = 13305.3"] ;
180 -> 182 ;
183 [label="squared_error = 0.0\nsamples = 1\nvalue = 13333.0"] ;
182 -> 183 ;
184 [label="squared_error = 0.0\nsamples = 1\nvalue = 13250.0"] ;
182 -> 184 ;
185 [label="squared_error = 0.0\nsamples = 1\nvalue = 14000.0"] ;
179 -> 185 ;
186 [label="Item_Rye <= 0.5\nsquared_error = 8319786.3\nsamples = 6\nvalue = 15757.2"] ;
110 -> 186 ;
187 [label="Pesticides (tonnes) <= 0.0\nsquared_error = 4180553.7\nsamples = 3\nvalue = 14411.6"] ;
186 -> 187 ;
188 [label="Year <= 0.3\nsquared_error = 229001.4\nsamples = 2\nvalue = 13657.6"] ;
187 -> 188 ;
189 [label="squared_error = 0.0\nsamples = 1\nvalue = 14072.0"] ;
188 -> 189 ;
190 [label="squared_error = 0.0\nsamples = 1\nvalue = 13105.0"] ;
188 -> 190 ;
191 [label="squared_error = 0.0\nsamples = 1\nvalue = 19690.0"] ;
187 -> 191 ;
192 [label="Pesticides (tonnes) <= 0.0\nsquared_error = 1654846.9\nsamples = 3\nvalue = 19345.3"] ;
186 -> 192 ;
193 [label="Year <= 0.3\nsquared_error = 632025.0\nsamples = 2\nvalue = 18560.0"] ;
192 -> 193 ;
194 [label="squared_error = 0.0\nsamples = 1\nvalue = 17765.0"] ;
193 -> 194 ;
195 [label="squared_error = 0.0\nsamples = 1\nvalue = 19355.0"] ;
193 -> 195 ;
196 [label="squared_error = 0.0\nsamples = 1\nvalue = 20916.0"] ;
192 -> 196 ;
197 [label="Year <= 0.1\nsquared_error = 42437.6\nsamples = 2\nvalue = 19854.3"] ;
39 -> 197 ;
198 [label="squared_error = 0.0\nsamples = 1\nvalue = 20000.0"] ;
197 -> 198 ;
199 [label="squared_error = 0.0\nsamples = 1\nvalue = 19563.0"] ;
197 -> 199 ;
200 [label="Pesticides (tonnes) <= 0.0\nsquared_error = 15617271.5\nsamples = 10\nvalue = 17004.7"] ;
38 -> 200 ;
201 [label="Item_Rye <= 0.5\nsquared_error = 85556.2\nsamples = 2\nvalue = 21656.5"] ;
200 -> 201 ;
202 [label="squared_error = 0.0\nsamples = 1\nvalue = 21949.0"] ;
201 -> 202 ;
203 [label="squared_error = 0.0\nsamples = 1\nvalue = 21364.0"] ;
201 -> 203 ;
204 [label="Pesticides (tonnes) <= 0.0\nsquared_error = 11689368.4\nsamples = 8\nvalue = 15573.4"] ;
200 -> 204 ;
205 [label="Year <= 0.3\nsquared_error = 260642.0\nsamples = 2\nvalue = 12466.0"] ;
204 -> 205 ;
206 [label="squared_error = 0.0\nsamples = 1\nvalue = 13188.0"] ;
205 -> 206 ;
207 [label="squared_error = 0.0\nsamples = 1\nvalue = 12105.0"] ;
205 -> 207 ;
208 [label="Item_Rye <= 0.5\nsquared_error = 11352209.0\nsamples = 6\nvalue = 16505.6"] ;
204 -> 208 ;
209 [label="Pesticides (tonnes) <= 0.0\nsquared_error = 10622841.2\nsamples = 3\nvalue = 17678.0"] ;
208 -> 209 ;
210 [label="squared_error = 0.0\nsamples = 1\nvalue = 20769.0"] ;
209 -> 210 ;
211 [label="Year <= 0.2\nsquared_error = 7088867.6\nsamples = 2\nvalue = 15617.3"] ;
209 -> 211 ;
212 [label="squared_error = 0.0\nsamples = 1\nvalue = 17500.0"] ;
211 -> 212 ;
213 [label="squared_error = 0.0\nsamples = 1\nvalue = 11852.0"] ;
211 -> 213 ;
214 [label="Pesticides (tonnes) <= 0.0\nsquared_error = 9332533.4\nsamples = 3\nvalue = 15333.2"] ;
208 -> 214 ;
215 [label="squared_error = 0.0\nsamples = 1\nvalue = 10000.0"] ;
214 -> 215 ;
216 [label="Pesticides (tonnes) <= 0.0\nsquared_error = 2777222.2\nsamples = 2\nvalue = 16666.5"] ;
214 -> 216 ;
217 [label="squared_error = 0.0\nsamples = 1\nvalue = 18333.0"] ;
216 -> 217 ;
218 [label="squared_error = 0.0\nsamples = 1\nvalue = 15000.0"] ;
216 -> 218 ;
219 [label="Item_Rye <= 0.5\nsquared_error = 2759202.0\nsamples = 9\nvalue = 18384.6"] ;
37 -> 219 ;
220 [label="Pesticides (tonnes) <= 0.0\nsquared_error = 2583598.9\nsamples = 5\nvalue = 17437.3"] ;
219 -> 220 ;
221 [label="Pesticides (tonnes) <= 0.0\nsquared_error = 1520708.6\nsamples = 3\nvalue = 16564.7"] ;
220 -> 221 ;
222 [label="Year <= 0.3\nsquared_error = 251167.0\nsamples = 2\nvalue = 17076.8"] ;
221 -> 222 ;
223 [label="squared_error = 0.0\nsamples = 1\nvalue = 16463.0"] ;
222 -> 223 ;
224 [label="squared_error = 0.0\nsamples = 1\nvalue = 17486.0"] ;
222 -> 224 ;
225 [label="squared_error = 0.0\nsamples = 1\nvalue = 14004.0"] ;
221 -> 225 ;
226 [label="Pesticides (tonnes) <= 0.0\nsquared_error = 140096.9\nsamples = 2\nvalue = 19182.7"] ;
220 -> 226 ;
227 [label="squared_error = 0.0\nsamples = 1\nvalue = 19712.0"] ;
226 -> 227 ;
228 [label="squared_error = 0.0\nsamples = 1\nvalue = 18918.0"] ;
226 -> 228 ;
229 [label="Year <= 0.2\nsquared_error = 811400.7\nsamples = 4\nvalue = 19450.4"] ;
219 -> 229 ;
230 [label="squared_error = 0.0\nsamples = 1\nvalue = 18086.0"] ;
229 -> 230 ;
231 [label="Year <= 0.4\nsquared_error = 254525.8\nsamples = 3\nvalue = 19905.2"] ;
229 -> 231 ;
232 [label="Pesticides (tonnes) <= 0.0\nsquared_error = 334016.9\nsamples = 2\nvalue = 19609.3"] ;
231 -> 232 ;
233 [label="squared_error = 0.0\nsamples = 1\nvalue = 18792.0"] ;
232 -> 233 ;
234 [label="squared_error = 0.0\nsamples = 1\nvalue = 20018.0"] ;
232 -> 234 ;
235 [label="squared_error = 0.0\nsamples = 1\nvalue = 20201.0"] ;
231 -> 235 ;
236 [label="Country_Algeria <= 0.5\nsquared_error = 44130028.2\nsamples = 69\nvalue = 17870.0"] ;
36 -> 236 ;
237 [label="Country_Kenya <= 0.5\nsquared_error = 38744270.1\nsamples = 65\nvalue = 18559.9"] ;
236 -> 237 ;
238 [label="Pesticides (tonnes) <= 0.0\nsquared_error = 35502852.3\nsamples = 58\nvalue = 19465.7"] ;
237 -> 238 ;
239 [label="Country_Bulgaria <= 0.5\nsquared_error = 31894608.4\nsamples = 54\nvalue = 20038.5"] ;
238 -> 239 ;
240 [label="Country_Israel <= 0.5\nsquared_error = 32645929.2\nsamples = 42\nvalue = 21229.0"] ;
239 -> 240 ;
241 [label="Country_Cyprus <= 0.5\nsquared_error = 28075318.2\nsamples = 41\nvalue = 21526.8"] ;
240 -> 241 ;
242 [label="Year <= 0.3\nsquared_error = 25209993.6\nsamples = 40\nvalue = 21769.8"] ;
241 -> 242 ;
243 [label="Country_Portugal <= 0.5\nsquared_error = 13029537.7\nsamples = 27\nvalue = 22925.1"] ;
242 -> 243 ;
244 [label="Pesticides (tonnes) <= 0.0\nsquared_error = 8329798.7\nsamples = 26\nvalue = 23284.6"] ;
243 -> 244 ;
245 [label="Pesticides (tonnes) <= 0.0\nsquared_error = 8239041.2\nsamples = 22\nvalue = 23829.3"] ;
244 -> 245 ;
246 [label="Country_Egypt <= 0.5\nsquared_error = 6748931.1\nsamples = 20\nvalue = 23361.0"] ;
245 -> 246 ;
247 [label="Country_Zimbabwe <= 0.5\nsquared_error = 6040577.3\nsamples = 18\nvalue = 23764.3"] ;
246 -> 247 ;
248 [label="Year <= 0.1\nsquared_error = 4766776.6\nsamples = 16\nvalue = 24141.2"] ;
247 -> 248 ;
249 [label="Item_Rye <= 0.5\nsquared_error = 10086132.2\nsamples = 4\nvalue = 26247.2"] ;
248 -> 249 ;
250 [label="Pesticides (tonnes) <= 0.0\nsquared_error = 4086462.2\nsamples = 2\nvalue = 23721.5"] ;
249 -> 250 ;
251 [label="squared_error = 0.0\nsamples = 1\nvalue = 25743.0"] ;
250 -> 251 ;
252 [label="squared_error = 0.0\nsamples = 1\nvalue = 21700.0"] ;
250 -> 252 ;
253 [label="Pesticides (tonnes) <= 0.0\nsquared_error = 3326976.0\nsamples = 2\nvalue = 28773.0"] ;
249 -> 253 ;
254 [label="squared_error = 0.0\nsamples = 1\nvalue = 26949.0"] ;
253 -> 254 ;
255 [label="squared_error = 0.0\nsamples = 1\nvalue = 30597.0"] ;
253 -> 255 ;
256 [label="Year <= 0.3\nsquared_error = 2516567.8\nsamples = 12\nvalue = 23697.8"] ;
248 -> 256 ;
257 [label="Pesticides (tonnes) <= 0.0\nsquared_error = 2273216.5\nsamples = 9\nvalue = 23260.3"] ;
256 -> 257 ;
258 [label="Item_Rye <= 0.5\nsquared_error = 792846.4\nsamples = 6\nvalue = 23888.6"] ;
257 -> 258 ;
259 [label="Year <= 0.1\nsquared_error = 929563.6\nsamples = 4\nvalue = 23453.7"] ;
258 -> 259 ;
260 [label="Pesticides (tonnes) <= 0.0\nsquared_error = 608400.0\nsamples = 2\nvalue = 24655.0"] ;
259 -> 260 ;
261 [label="squared_error = 0.0\nsamples = 1\nvalue = 23875.0"] ;
260 -> 261 ;
262 [label="squared_error = 0.0\nsamples = 1\nvalue = 25435.0"] ;
260 -> 262 ;
263 [label="Pesticides (tonnes) <= 0.0\nsquared_error = 7744.0\nsamples = 2\nvalue = 22853.0"] ;
259 -> 263 ;
264 [label="squared_error = 0.0\nsamples = 1\nvalue = 22941.0"] ;
263 -> 264 ;
265 [label="squared_error = 0.0\nsamples = 1\nvalue = 22765.0"] ;
263 -> 265 ;
266 [label="Year <= 0.2\nsquared_error = 129301.4\nsamples = 2\nvalue = 24410.6"] ;
258 -> 266 ;
267 [label="squared_error = 0.0\nsamples = 1\nvalue = 24117.0"] ;
266 -> 267 ;
268 [label="squared_error = 0.0\nsamples = 1\nvalue = 24851.0"] ;
266 -> 268 ;
269 [label="Item_Rye <= 0.5\nsquared_error = 2272359.2\nsamples = 3\nvalue = 21532.2"] ;
257 -> 269 ;
270 [label="squared_error = 0.0\nsamples = 1\nvalue = 18938.0"] ;
269 -> 270 ;
271 [label="Year <= 0.2\nsquared_error = 38642.0\nsamples = 2\nvalue = 22397.0"] ;
269 -> 271 ;
272 [label="squared_error = 0.0\nsamples = 1\nvalue = 22536.0"] ;
271 -> 272 ;
273 [label="squared_error = 0.0\nsamples = 1\nvalue = 22119.0"] ;
271 -> 273 ;
274 [label="Pesticides (tonnes) <= 0.0\nsquared_error = 18535.7\nsamples = 3\nvalue = 25338.8"] ;
256 -> 274 ;
275 [label="squared_error = 0.0\nsamples = 1\nvalue = 25569.0"] ;
274 -> 275 ;
276 [label="Pesticides (tonnes) <= 0.0\nsquared_error = 1152.0\nsamples = 2\nvalue = 25262.0"] ;
274 -> 276 ;
277 [label="squared_error = 0.0\nsamples = 1\nvalue = 25214.0"] ;
276 -> 277 ;
278 [label="squared_error = 0.0\nsamples = 1\nvalue = 25286.0"] ;
276 -> 278 ;
279 [label="Pesticides (tonnes) <= 0.0\nsquared_error = 269361.0\nsamples = 2\nvalue = 19430.0"] ;
247 -> 279 ;
280 [label="squared_error = 0.0\nsamples = 1\nvalue = 18911.0"] ;
279 -> 280 ;
281 [label="squared_error = 0.0\nsamples = 1\nvalue = 19949.0"] ;
279 -> 281 ;
282 [label="squared_error = 0.0\nsamples = 2\nvalue = 20000.0"] ;
246 -> 282 ;
283 [label="Item_Rye <= 0.5\nsquared_error = 996872.0\nsamples = 2\nvalue = 28200.0"] ;
245 -> 283 ;
284 [label="squared_error = 0.0\nsamples = 1\nvalue = 26788.0"] ;
283 -> 284 ;
285 [label="squared_error = 0.0\nsamples = 1\nvalue = 28906.0"] ;
283 -> 285 ;
286 [label="Pesticides (tonnes) <= 0.0\nsquared_error = 1599940.5\nsamples = 4\nvalue = 20872.6"] ;
244 -> 286 ;
287 [label="Year <= 0.2\nsquared_error = 1370529.2\nsamples = 3\nvalue = 21655.2"] ;
286 -> 287 ;
288 [label="Pesticides (tonnes) <= 0.0\nsquared_error = 180000.0\nsamples = 2\nvalue = 22297.0"] ;
287 -> 288 ;
289 [label="squared_error = 0.0\nsamples = 1\nvalue = 21997.0"] ;
288 -> 289 ;
290 [label="squared_error = 0.0\nsamples = 1\nvalue = 22897.0"] ;
288 -> 290 ;
291 [label="squared_error = 0.0\nsamples = 1\nvalue = 19730.0"] ;
287 -> 291 ;
292 [label="squared_error = 0.0\nsamples = 1\nvalue = 19829.0"] ;
286 -> 292 ;
293 [label="squared_error = 0.0\nsamples = 1\nvalue = 9261.0"] ;
243 -> 293 ;
294 [label="Pesticides (tonnes) <= 0.0\nsquared_error = 43067716.0\nsamples = 13\nvalue = 19119.5"] ;
242 -> 294 ;
295 [label="Pesticides (tonnes) <= 0.0\nsquared_error = 2780558.8\nsamples = 4\nvalue = 24526.3"] ;
294 -> 295 ;
296 [label="Pesticides (tonnes) <= 0.0\nsquared_error = 1182722.0\nsamples = 2\nvalue = 22786.0"] ;
295 -> 296 ;
297 [label="squared_error = 0.0\nsamples = 1\nvalue = 23555.0"] ;
296 -> 297 ;
298 [label="squared_error = 0.0\nsamples = 1\nvalue = 21248.0"] ;
296 -> 298 ;
299 [label="Item_Rye <= 0.5\nsquared_error = 3906.2\nsamples = 2\nvalue = 25831.5"] ;
295 -> 299 ;
300 [label="squared_error = 0.0\nsamples = 1\nvalue = 25894.0"] ;
299 -> 300 ;
301 [label="squared_error = 0.0\nsamples = 1\nvalue = 25769.0"] ;
299 -> 301 ;
302 [label="Pesticides (tonnes) <= 0.0\nsquared_error = 36481439.8\nsamples = 9\nvalue = 15334.8"] ;
294 -> 302 ;
303 [label="Country_Uruguay <= 0.5\nsquared_error = 22766635.5\nsamples = 8\nvalue = 16667.8"] ;
302 -> 303 ;
304 [label="Year <= 0.3\nsquared_error = 19360381.4\nsamples = 7\nvalue = 17501.2"] ;
303 -> 304 ;
305 [label="Pesticides (tonnes) <= 0.0\nsquared_error = 11152908.7\nsamples = 3\nvalue = 20766.0"] ;
304 -> 305 ;
306 [label="squared_error = 0.0\nsamples = 1\nvalue = 25185.0"] ;
305 -> 306 ;
307 [label="Item_Rye <= 0.5\nsquared_error = 2083692.2\nsamples = 2\nvalue = 18556.5"] ;
305 -> 307 ;
308 [label="squared_error = 0.0\nsamples = 1\nvalue = 17113.0"] ;
307 -> 308 ;
309 [label="squared_error = 0.0\nsamples = 1\nvalue = 20000.0"] ;
307 -> 309 ;
310 [label="Pesticides (tonnes) <= 0.0\nsquared_error = 14052616.2\nsamples = 4\nvalue = 15542.4"] ;
304 -> 310 ;
311 [label="Year <= 0.4\nsquared_error = 11356333.5\nsamples = 3\nvalue = 14428.0"] ;
310 -> 311 ;
312 [label="Item_Rye <= 0.5\nsquared_error = 4790544.2\nsamples = 2\nvalue = 16036.7"] ;
311 -> 312 ;
313 [label="squared_error = 0.0\nsamples = 1\nvalue = 19132.0"] ;
312 -> 313 ;
314 [label="squared_error = 0.0\nsamples = 1\nvalue = 14489.0"] ;
312 -> 314 ;
315 [label="squared_error = 0.0\nsamples = 1\nvalue = 9602.0"] ;
311 -> 315 ;
316 [label="squared_error = 0.0\nsamples = 1\nvalue = 20000.0"] ;
310 -> 316 ;
317 [label="squared_error = 0.0\nsamples = 1\nvalue = 10000.0"] ;
303 -> 317 ;
318 [label="squared_error = 0.0\nsamples = 1\nvalue = 3338.0"] ;
302 -> 318 ;
319 [label="squared_error = 0.0\nsamples = 1\nvalue = 7917.0"] ;
241 -> 319 ;
320 [label="squared_error = 0.0\nsamples = 1\nvalue = 4255.0"] ;
240 -> 320 ;
321 [label="Item_Rye <= 0.5\nsquared_error = 12068233.3\nsamples = 12\nvalue = 16404.4"] ;
239 -> 321 ;
322 [label="Pesticides (tonnes) <= 0.0\nsquared_error = 1834649.2\nsamples = 6\nvalue = 14021.4"] ;
321 -> 322 ;
323 [label="squared_error = 0.0\nsamples = 1\nvalue = 11581.0"] ;
322 -> 323 ;
324 [label="Pesticides (tonnes) <= 0.0\nsquared_error = 1124426.9\nsamples = 5\nvalue = 14370.0"] ;
322 -> 324 ;
325 [label="squared_error = 0.0\nsamples = 1\nvalue = 16646.0"] ;
324 -> 325 ;
326 [label="Pesticides (tonnes) <= 0.0\nsquared_error = 304574.9\nsamples = 4\nvalue = 13990.7"] ;
324 -> 326 ;
327 [label="Pesticides (tonnes) <= 0.0\nsquared_error = 299310.2\nsamples = 3\nvalue = 13761.5"] ;
326 -> 327 ;
328 [label="squared_error = 0.0\nsamples = 1\nvalue = 14308.0"] ;
327 -> 328 ;
329 [label="Year <= 0.2\nsquared_error = 1296.0\nsamples = 2\nvalue = 13215.0"] ;
327 -> 329 ;
330 [label="squared_error = 0.0\nsamples = 1\nvalue = 13179.0"] ;
329 -> 330 ;
331 [label="squared_error = 0.0\nsamples = 1\nvalue = 13251.0"] ;
329 -> 331 ;
332 [label="squared_error = 0.0\nsamples = 1\nvalue = 14449.0"] ;
326 -> 332 ;
333 [label="Year <= 0.3\nsquared_error = 12377004.4\nsamples = 6\nvalue = 18137.5"] ;
321 -> 333 ;
334 [label="Pesticides (tonnes) <= 0.0\nsquared_error = 8814500.6\nsamples = 5\nvalue = 16171.0"] ;
333 -> 334 ;
335 [label="Year <= 0.2\nsquared_error = 461655.2\nsamples = 3\nvalue = 13691.2"] ;
334 -> 335 ;
336 [label="Year <= 0.2\nsquared_error = 76050.0\nsamples = 2\nvalue = 13324.0"] ;
335 -> 336 ;
337 [label="squared_error = 0.0\nsamples = 1\nvalue = 13129.0"] ;
336 -> 337 ;
338 [label="squared_error = 0.0\nsamples = 1\nvalue = 13714.0"] ;
336 -> 338 ;
339 [label="squared_error = 0.0\nsamples = 1\nvalue = 14793.0"] ;
335 -> 339 ;
340 [label="Year <= 0.0\nsquared_error = 820907.6\nsamples = 2\nvalue = 19477.3"] ;
334 -> 340 ;
341 [label="squared_error = 0.0\nsamples = 1\nvalue = 20118.0"] ;
340 -> 341 ;
342 [label="squared_error = 0.0\nsamples = 1\nvalue = 18196.0"] ;
340 -> 342 ;
343 [label="squared_error = 0.0\nsamples = 1\nvalue = 21579.0"] ;
333 -> 343 ;
344 [label="Pesticides (tonnes) <= 0.0\nsquared_error = 36682927.6\nsamples = 4\nvalue = 13952.9"] ;
238 -> 344 ;
345 [label="Item_Oats <= 0.5\nsquared_error = 121504.7\nsamples = 2\nvalue = 7901.2"] ;
344 -> 345 ;
346 [label="squared_error = 0.0\nsamples = 1\nvalue = 7700.0"] ;
345 -> 346 ;
347 [label="squared_error = 0.0\nsamples = 1\nvalue = 8505.0"] ;
345 -> 347 ;
348 [label="Country_Greece <= 0.5\nsquared_error = 20.2\nsamples = 2\nvalue = 20004.5"] ;
344 -> 348 ;
349 [label="squared_error = 0.0\nsamples = 1\nvalue = 20000.0"] ;
348 -> 349 ;
350 [label="squared_error = 0.0\nsamples = 1\nvalue = 20009.0"] ;
348 -> 350 ;
351 [label="Pesticides (tonnes) <= 0.0\nsquared_error = 40901.2\nsamples = 7\nvalue = 10860.5"] ;
237 -> 351 ;
352 [label="squared_error = 0.0\nsamples = 1\nvalue = 10588.0"] ;
351 -> 352 ;
353 [label="Year <= 0.0\nsquared_error = 27921.5\nsamples = 6\nvalue = 10928.6"] ;
351 -> 353 ;
354 [label="squared_error = 0.0\nsamples = 1\nvalue = 10577.0"] ;
353 -> 354 ;
355 [label="Year <= 0.1\nsquared_error = 11724.1\nsamples = 5\nvalue = 10978.9"] ;
353 -> 355 ;
356 [label="Year <= 0.1\nsquared_error = 162.0\nsamples = 2\nvalue = 11102.0"] ;
355 -> 356 ;
357 [label="squared_error = 0.0\nsamples = 1\nvalue = 11084.0"] ;
356 -> 357 ;
358 [label="squared_error = 0.0\nsamples = 1\nvalue = 11111.0"] ;
356 -> 358 ;
359 [label="Year <= 0.3\nsquared_error = 492.8\nsamples = 3\nvalue = 10886.5"] ;
355 -> 359 ;
360 [label="Year <= 0.2\nsquared_error = 32.0\nsamples = 2\nvalue = 10874.0"] ;
359 -> 360 ;
361 [label="squared_error = 0.0\nsamples = 1\nvalue = 10882.0"] ;
360 -> 361 ;
362 [label="squared_error = 0.0\nsamples = 1\nvalue = 10870.0"] ;
360 -> 362 ;
363 [label="squared_error = 0.0\nsamples = 1\nvalue = 10924.0"] ;
359 -> 363 ;
364 [label="Year <= 0.0\nsquared_error = 2555962.3\nsamples = 4\nvalue = 6947.0"] ;
236 -> 364 ;
365 [label="squared_error = 0.0\nsamples = 1\nvalue = 5032.0"] ;
364 -> 365 ;
366 [label="Year <= 0.1\nsquared_error = 1083524.8\nsamples = 3\nvalue = 7904.5"] ;
364 -> 366 ;
367 [label="squared_error = 0.0\nsamples = 1\nvalue = 9693.0"] ;
366 -> 367 ;
368 [label="Pesticides (tonnes) <= 0.0\nsquared_error = 23040.9\nsamples = 2\nvalue = 7308.3"] ;
366 -> 368 ;
369 [label="squared_error = 0.0\nsamples = 1\nvalue = 7523.0"] ;
368 -> 369 ;
370 [label="squared_error = 0.0\nsamples = 1\nvalue = 7201.0"] ;
368 -> 370 ;
371 [label="Country_Romania <= 0.5\nsquared_error = 24576560.2\nsamples = 68\nvalue = 12026.9"] ;
35 -> 371 ;
372 [label="Item_Rye <= 0.5\nsquared_error = 23424208.6\nsamples = 54\nvalue = 10906.8"] ;
371 -> 372 ;
373 [label="Pesticides (tonnes) <= 0.0\nsquared_error = 15081830.6\nsamples = 23\nvalue = 13019.5"] ;
372 -> 373 ;
374 [label="Country_Greece <= 0.5\nsquared_error = 9766882.9\nsamples = 8\nvalue = 9682.0"] ;
373 -> 374 ;
375 [label="Year <= 0.3\nsquared_error = 2951865.1\nsamples = 7\nvalue = 8946.8"] ;
374 -> 375 ;
376 [label="Year <= 0.2\nsquared_error = 1533801.0\nsamples = 6\nvalue = 8398.5"] ;
375 -> 376 ;
377 [label="Year <= 0.1\nsquared_error = 1191968.0\nsamples = 2\nvalue = 9820.0"] ;
376 -> 377 ;
378 [label="squared_error = 0.0\nsamples = 1\nvalue = 8276.0"] ;
377 -> 378 ;
379 [label="squared_error = 0.0\nsamples = 1\nvalue = 10592.0"] ;
377 -> 379 ;
380 [label="Pesticides (tonnes) <= 0.0\nsquared_error = 620017.7\nsamples = 4\nvalue = 7865.4"] ;
376 -> 380 ;
381 [label="Year <= 0.2\nsquared_error = 113373.3\nsamples = 3\nvalue = 8138.1"] ;
380 -> 381 ;
382 [label="squared_error = 0.0\nsamples = 1\nvalue = 7847.0"] ;
381 -> 382 ;
383 [label="Country_Portugal <= 0.5\nsquared_error = 826.9\nsamples = 2\nvalue = 8526.3"] ;
381 -> 383 ;
384 [label="squared_error = 0.0\nsamples = 1\nvalue = 8506.0"] ;
383 -> 384 ;
385 [label="squared_error = 0.0\nsamples = 1\nvalue = 8567.0"] ;
383 -> 385 ;
386 [label="squared_error = 0.0\nsamples = 1\nvalue = 5956.0"] ;
380 -> 386 ;
387 [label="squared_error = 0.0\nsamples = 1\nvalue = 11963.0"] ;
375 -> 387 ;
388 [label="squared_error = 0.0\nsamples = 1\nvalue = 19239.0"] ;
374 -> 388 ;
389 [label="Country_South Africa <= 0.5\nsquared_error = 7894361.4\nsamples = 15\nvalue = 14966.3"] ;
373 -> 389 ;
390 [label="Year <= 0.1\nsquared_error = 4586754.9\nsamples = 10\nvalue = 16210.6"] ;
389 -> 390 ;
391 [label="Country_Argentina <= 0.5\nsquared_error = 1951695.9\nsamples = 4\nvalue = 17751.3"] ;
390 -> 391 ;
392 [label="Pesticides (tonnes) <= 0.0\nsquared_error = 1018514.4\nsamples = 3\nvalue = 18221.0"] ;
391 -> 392 ;
393 [label="squared_error = 0.0\nsamples = 1\nvalue = 20000.0"] ;
392 -> 393 ;
394 [label="Pesticides (tonnes) <= 0.0\nsquared_error = 284130.2\nsamples = 2\nvalue = 17776.2"] ;
392 -> 394 ;
395 [label="squared_error = 0.0\nsamples = 1\nvalue = 16853.0"] ;
394 -> 395 ;
396 [label="squared_error = 0.0\nsamples = 1\nvalue = 18084.0"] ;
394 -> 396 ;
397 [label="squared_error = 0.0\nsamples = 1\nvalue = 15403.0"] ;
391 -> 397 ;
398 [label="Pesticides (tonnes) <= 0.0\nsquared_error = 4022924.9\nsamples = 6\nvalue = 15370.2"] ;
390 -> 398 ;
399 [label="Pesticides (tonnes) <= 0.0\nsquared_error = 2143830.2\nsamples = 2\nvalue = 12371.7"] ;
398 -> 399 ;
400 [label="squared_error = 0.0\nsamples = 1\nvalue = 13407.0"] ;
399 -> 400 ;
401 [label="squared_error = 0.0\nsamples = 1\nvalue = 10301.0"] ;
399 -> 401 ;
402 [label="Year <= 0.1\nsquared_error = 91553.0\nsamples = 4\nvalue = 16494.6"] ;
398 -> 402 ;
403 [label="squared_error = 0.0\nsamples = 1\nvalue = 16143.0"] ;
402 -> 403 ;
404 [label="Country_Australia <= 0.5\nsquared_error = 27790.2\nsamples = 3\nvalue = 16705.6"] ;
402 -> 404 ;
405 [label="Pesticides (tonnes) <= 0.0\nsquared_error = 1605.6\nsamples = 2\nvalue = 16839.3"] ;
404 -> 405 ;
406 [label="squared_error = 0.0\nsamples = 1\nvalue = 16811.0"] ;
405 -> 406 ;
407 [label="squared_error = 0.0\nsamples = 1\nvalue = 16896.0"] ;
405 -> 407 ;
408 [label="squared_error = 0.0\nsamples = 1\nvalue = 16505.0"] ;
404 -> 408 ;
409 [label="Year <= 0.2\nsquared_error = 3036232.8\nsamples = 5\nvalue = 11944.6"] ;
389 -> 409 ;
410 [label="Year <= 0.1\nsquared_error = 1272377.6\nsamples = 3\nvalue = 13347.7"] ;
409 -> 410 ;
411 [label="Year <= 0.1\nsquared_error = 326612.2\nsamples = 2\nvalue = 12621.5"] ;
410 -> 411 ;
412 [label="squared_error = 0.0\nsamples = 1\nvalue = 12050.0"] ;
411 -> 412 ;
413 [label="squared_error = 0.0\nsamples = 1\nvalue = 13193.0"] ;
411 -> 413 ;
414 [label="squared_error = 0.0\nsamples = 1\nvalue = 14800.0"] ;
410 -> 414 ;
415 [label="Year <= 0.3\nsquared_error = 1775236.7\nsamples = 2\nvalue = 10892.2"] ;
409 -> 415 ;
416 [label="squared_error = 0.0\nsamples = 1\nvalue = 10123.0"] ;
415 -> 416 ;
417 [label="squared_error = 0.0\nsamples = 1\nvalue = 13200.0"] ;
415 -> 417 ;
418 [label="Country_South Africa <= 0.5\nsquared_error = 23080897.1\nsamples = 31\nvalue = 8899.7"] ;
372 -> 418 ;
419 [label="Year <= 0.3\nsquared_error = 15264788.1\nsamples = 27\nvalue = 10078.3"] ;
418 -> 419 ;
420 [label="Country_Egypt <= 0.5\nsquared_error = 10904121.7\nsamples = 22\nvalue = 9006.7"] ;
419 -> 420 ;
421 [label="Country_Turkey <= 0.5\nsquared_error = 7149432.1\nsamples = 21\nvalue = 8621.3"] ;
420 -> 421 ;
422 [label="Pesticides (tonnes) <= 0.0\nsquared_error = 4063710.4\nsamples = 19\nvalue = 8114.4"] ;
421 -> 422 ;
423 [label="Year <= 0.2\nsquared_error = 2945555.8\nsamples = 17\nvalue = 7797.4"] ;
422 -> 423 ;
424 [label="Pesticides (tonnes) <= 0.0\nsquared_error = 1246575.9\nsamples = 12\nvalue = 8385.7"] ;
423 -> 424 ;
425 [label="Year <= 0.0\nsquared_error = 212070.4\nsamples = 4\nvalue = 9451.1"] ;
424 -> 425 ;
426 [label="squared_error = 0.0\nsamples = 1\nvalue = 10151.0"] ;
425 -> 426 ;
427 [label="Year <= 0.1\nsquared_error = 22610.6\nsamples = 3\nvalue = 9171.2"] ;
425 -> 427 ;
428 [label="Pesticides (tonnes) <= 0.0\nsquared_error = 1764.0\nsamples = 2\nvalue = 9244.0"] ;
427 -> 428 ;
429 [label="squared_error = 0.0\nsamples = 1\nvalue = 9202.0"] ;
428 -> 429 ;
430 [label="squared_error = 0.0\nsamples = 1\nvalue = 9286.0"] ;
428 -> 430 ;
431 [label="squared_error = 0.0\nsamples = 1\nvalue = 8880.0"] ;
427 -> 431 ;
432 [label="Year <= 0.1\nsquared_error = 722747.3\nsamples = 8\nvalue = 7707.6"] ;
424 -> 432 ;
433 [label="Pesticides (tonnes) <= 0.0\nsquared_error = 357817.6\nsamples = 7\nvalue = 7907.0"] ;
432 -> 433 ;
434 [label="Year <= 0.1\nsquared_error = 299205.2\nsamples = 3\nvalue = 7430.2"] ;
433 -> 434 ;
435 [label="Year <= 0.0\nsquared_error = 202248.0\nsamples = 2\nvalue = 7652.0"] ;
434 -> 435 ;
436 [label="squared_error = 0.0\nsamples = 1\nvalue = 7016.0"] ;
435 -> 436 ;
437 [label="squared_error = 0.0\nsamples = 1\nvalue = 7970.0"] ;
435 -> 437 ;
438 [label="squared_error = 0.0\nsamples = 1\nvalue = 6765.0"] ;
434 -> 438 ;
439 [label="Year <= 0.1\nsquared_error = 144347.5\nsamples = 4\nvalue = 8224.8"] ;
433 -> 439 ;
440 [label="squared_error = 0.0\nsamples = 2\nvalue = 8103.0"] ;
439 -> 440 ;
441 [label="Pesticides (tonnes) <= 0.0\nsquared_error = 343982.2\nsamples = 2\nvalue = 8468.5"] ;
439 -> 441 ;
442 [label="squared_error = 0.0\nsamples = 1\nvalue = 7882.0"] ;
441 -> 442 ;
443 [label="squared_error = 0.0\nsamples = 1\nvalue = 9055.0"] ;
441 -> 443 ;
444 [label="squared_error = 0.0\nsamples = 1\nvalue = 5714.0"] ;
432 -> 444 ;
445 [label="Pesticides (tonnes) <= 0.0\nsquared_error = 3330999.0\nsamples = 5\nvalue = 5679.6"] ;
423 -> 445 ;
446 [label="Year <= 0.2\nsquared_error = 2371600.0\nsamples = 2\nvalue = 7365.0"] ;
445 -> 446 ;
447 [label="squared_error = 0.0\nsamples = 1\nvalue = 5825.0"] ;
446 -> 447 ;
448 [label="squared_error = 0.0\nsamples = 1\nvalue = 8905.0"] ;
446 -> 448 ;
449 [label="Year <= 0.2\nsquared_error = 814406.0\nsamples = 3\nvalue = 4556.0"] ;
445 -> 449 ;
450 [label="squared_error = 0.0\nsamples = 1\nvalue = 5713.0"] ;
449 -> 450 ;
451 [label="Country_Republic of Korea <= 0.5\nsquared_error = 217622.2\nsamples = 2\nvalue = 3977.5"] ;
449 -> 451 ;
452 [label="squared_error = 0.0\nsamples = 1\nvalue = 3511.0"] ;
451 -> 452 ;
453 [label="squared_error = 0.0\nsamples = 1\nvalue = 4444.0"] ;
451 -> 453 ;
454 [label="Country_Republic of Korea <= 0.5\nsquared_error = 2472756.2\nsamples = 2\nvalue = 11760.5"] ;
422 -> 454 ;
455 [label="squared_error = 0.0\nsamples = 1\nvalue = 10188.0"] ;
454 -> 455 ;
456 [label="squared_error = 0.0\nsamples = 1\nvalue = 13333.0"] ;
454 -> 456 ;
457 [label="Pesticides (tonnes) <= 0.0\nsquared_error = 2368521.0\nsamples = 2\nvalue = 14957.0"] ;
421 -> 457 ;
458 [label="squared_error = 0.0\nsamples = 1\nvalue = 13418.0"] ;
457 -> 458 ;
459 [label="squared_error = 0.0\nsamples = 1\nvalue = 16496.0"] ;
457 -> 459 ;
460 [label="squared_error = 0.0\nsamples = 1\nvalue = 19412.0"] ;
420 -> 460 ;
461 [label="Pesticides (tonnes) <= 0.0\nsquared_error = 9740616.2\nsamples = 5\nvalue = 14364.7"] ;
419 -> 461 ;
462 [label="squared_error = 0.0\nsamples = 1\nvalue = 19980.0"] ;
461 -> 462 ;
463 [label="Year <= 0.3\nsquared_error = 5232940.1\nsamples = 4\nvalue = 13428.8"] ;
461 -> 463 ;
464 [label="squared_error = 0.0\nsamples = 1\nvalue = 15000.0"] ;
463 -> 464 ;
465 [label="Pesticides (tonnes) <= 0.0\nsquared_error = 5528750.9\nsamples = 3\nvalue = 11857.7"] ;
463 -> 465 ;
466 [label="Year <= 0.4\nsquared_error = 39601.0\nsamples = 2\nvalue = 10199.0"] ;
465 -> 466 ;
467 [label="squared_error = 0.0\nsamples = 1\nvalue = 10000.0"] ;
466 -> 467 ;
468 [label="squared_error = 0.0\nsamples = 1\nvalue = 10398.0"] ;
466 -> 468 ;
469 [label="squared_error = 0.0\nsamples = 1\nvalue = 15175.0"] ;
465 -> 469 ;
470 [label="Year <= 0.1\nsquared_error = 9360.6\nsamples = 4\nvalue = 649.8"] ;
418 -> 470 ;
471 [label="Year <= 0.0\nsquared_error = 3306.2\nsamples = 2\nvalue = 557.5"] ;
470 -> 471 ;
472 [label="squared_error = 0.0\nsamples = 1\nvalue = 500.0"] ;
471 -> 472 ;
473 [label="squared_error = 0.0\nsamples = 1\nvalue = 615.0"] ;
471 -> 473 ;
474 [label="Year <= 0.2\nsquared_error = 3930.9\nsamples = 2\nvalue = 711.3"] ;
470 -> 474 ;
475 [label="squared_error = 0.0\nsamples = 1\nvalue = 667.0"] ;
474 -> 475 ;
476 [label="squared_error = 0.0\nsamples = 1\nvalue = 800.0"] ;
474 -> 476 ;
477 [label="Pesticides (tonnes) <= 0.0\nsquared_error = 6888921.0\nsamples = 14\nvalue = 16187.1"] ;
371 -> 477 ;
478 [label="Pesticides (tonnes) <= 0.0\nsquared_error = 5280354.1\nsamples = 9\nvalue = 15106.8"] ;
477 -> 478 ;
479 [label="Year <= 0.4\nsquared_error = 5022845.1\nsamples = 7\nvalue = 15981.4"] ;
478 -> 479 ;
480 [label="Item_Oats <= 0.5\nsquared_error = 2368063.5\nsamples = 5\nvalue = 16892.8"] ;
479 -> 480 ;
481 [label="Pesticides (tonnes) <= 0.0\nsquared_error = 160400.2\nsamples = 2\nvalue = 18933.5"] ;
480 -> 481 ;
482 [label="squared_error = 0.0\nsamples = 1\nvalue = 18533.0"] ;
481 -> 482 ;
483 [label="squared_error = 0.0\nsamples = 1\nvalue = 19334.0"] ;
481 -> 483 ;
484 [label="Pesticides (tonnes) <= 0.0\nsquared_error = 348654.8\nsamples = 3\nvalue = 15872.5"] ;
480 -> 484 ;
485 [label="Year <= 0.2\nsquared_error = 82369.0\nsamples = 2\nvalue = 16427.0"] ;
484 -> 485 ;
486 [label="squared_error = 0.0\nsamples = 1\nvalue = 16714.0"] ;
485 -> 486 ;
487 [label="squared_error = 0.0\nsamples = 1\nvalue = 16140.0"] ;
485 -> 487 ;
488 [label="squared_error = 0.0\nsamples = 1\nvalue = 15318.0"] ;
484 -> 488 ;
489 [label="Item_Oats <= 0.5\nsquared_error = 5348630.2\nsamples = 2\nvalue = 14158.7"] ;
479 -> 489 ;
490 [label="squared_error = 0.0\nsamples = 1\nvalue = 15794.0"] ;
489 -> 490 ;
491 [label="squared_error = 0.0\nsamples = 1\nvalue = 10888.0"] ;
489 -> 491 ;
492 [label="Pesticides (tonnes) <= 0.0\nsquared_error = 266256.0\nsamples = 2\nvalue = 13139.0"] ;
478 -> 492 ;
493 [label="squared_error = 0.0\nsamples = 1\nvalue = 12623.0"] ;
492 -> 493 ;
494 [label="squared_error = 0.0\nsamples = 1\nvalue = 13655.0"] ;
492 -> 494 ;
495 [label="Item_Rye <= 0.5\nsquared_error = 4524683.0\nsamples = 5\nvalue = 17942.6"] ;
477 -> 495 ;
496 [label="Year <= 0.2\nsquared_error = 641609.0\nsamples = 3\nvalue = 16374.8"] ;
495 -> 496 ;
497 [label="Year <= 0.1\nsquared_error = 452256.2\nsamples = 2\nvalue = 15543.5"] ;
496 -> 497 ;
498 [label="squared_error = 0.0\nsamples = 1\nvalue = 16216.0"] ;
497 -> 498 ;
499 [label="squared_error = 0.0\nsamples = 1\nvalue = 14871.0"] ;
497 -> 499 ;
500 [label="squared_error = 0.0\nsamples = 1\nvalue = 16929.0"] ;
496 -> 500 ;
501 [label="Pesticides (tonnes) <= 0.0\nsquared_error = 71694.2\nsamples = 2\nvalue = 20555.7"] ;
495 -> 501 ;
502 [label="squared_error = 0.0\nsamples = 1\nvalue = 20745.0"] ;
501 -> 502 ;
503 [label="squared_error = 0.0\nsamples = 1\nvalue = 20177.0"] ;
501 -> 503 ;
504 [label="Year <= 0.2\nsquared_error = 6668420.2\nsamples = 10\nvalue = 8198.2"] ;
34 -> 504 ;
505 [label="Item_Rye <= 0.5\nsquared_error = 12131672.6\nsamples = 4\nvalue = 6322.7"] ;
504 -> 505 ;
506 [label="squared_error = 0.0\nsamples = 1\nvalue = 1397.0"] ;
505 -> 506 ;
507 [label="Year <= 0.2\nsquared_error = 864.8\nsamples = 3\nvalue = 8785.5"] ;
505 -> 507 ;
508 [label="Year <= 0.1\nsquared_error = 107.6\nsamples = 2\nvalue = 8801.7"] ;
507 -> 508 ;
509 [label="squared_error = 0.0\nsamples = 1\nvalue = 8787.0"] ;
508 -> 509 ;
510 [label="squared_error = 0.0\nsamples = 1\nvalue = 8809.0"] ;
508 -> 510 ;
511 [label="squared_error = 0.0\nsamples = 1\nvalue = 8737.0"] ;
507 -> 511 ;
512 [label="Item_Rye <= 0.5\nsquared_error = 723081.8\nsamples = 6\nvalue = 9221.3"] ;
504 -> 512 ;
513 [label="Year <= 0.4\nsquared_error = 83232.2\nsamples = 2\nvalue = 10265.5"] ;
512 -> 513 ;
514 [label="squared_error = 0.0\nsamples = 1\nvalue = 9977.0"] ;
513 -> 514 ;
515 [label="squared_error = 0.0\nsamples = 1\nvalue = 10554.0"] ;
513 -> 515 ;
516 [label="Pesticides (tonnes) <= 0.0\nsquared_error = 109566.0\nsamples = 4\nvalue = 8624.6"] ;
512 -> 516 ;
517 [label="Year <= 0.3\nsquared_error = 52074.2\nsamples = 2\nvalue = 8395.2"] ;
516 -> 517 ;
518 [label="squared_error = 0.0\nsamples = 1\nvalue = 8527.0"] ;
517 -> 518 ;
519 [label="squared_error = 0.0\nsamples = 1\nvalue = 8000.0"] ;
517 -> 519 ;
520 [label="Pesticides (tonnes) <= 0.0\nsquared_error = 22613.6\nsamples = 2\nvalue = 8930.3"] ;
516 -> 520 ;
521 [label="squared_error = 0.0\nsamples = 1\nvalue = 8824.0"] ;
520 -> 521 ;
522 [label="squared_error = 0.0\nsamples = 1\nvalue = 9143.0"] ;
520 -> 522 ;
523 [label="Year <= 0.4\nsquared_error = 23987228.0\nsamples = 11\nvalue = 7133.1"] ;
33 -> 523 ;
524 [label="Item_Rye <= 0.5\nsquared_error = 6286895.2\nsamples = 9\nvalue = 5801.6"] ;
523 -> 524 ;
525 [label="Year <= 0.1\nsquared_error = 2857537.0\nsamples = 6\nvalue = 7224.5"] ;
524 -> 525 ;
526 [label="squared_error = 0.0\nsamples = 1\nvalue = 11512.0"] ;
525 -> 526 ;
527 [label="Year <= 0.2\nsquared_error = 264506.6\nsamples = 5\nvalue = 6612.0"] ;
525 -> 527 ;
528 [label="squared_error = 0.0\nsamples = 1\nvalue = 7683.0"] ;
527 -> 528 ;
529 [label="Year <= 0.2\nsquared_error = 85555.2\nsamples = 4\nvalue = 6433.5"] ;
527 -> 529 ;
530 [label="squared_error = 0.0\nsamples = 1\nvalue = 6267.0"] ;
529 -> 530 ;
531 [label="Year <= 0.3\nsquared_error = 107541.2\nsamples = 3\nvalue = 6516.8"] ;
529 -> 531 ;
532 [label="squared_error = 0.0\nsamples = 1\nvalue = 7083.0"] ;
531 -> 532 ;
533 [label="Year <= 0.3\nsquared_error = 882.0\nsamples = 2\nvalue = 6328.0"] ;
531 -> 533 ;
534 [label="squared_error = 0.0\nsamples = 1\nvalue = 6307.0"] ;
533 -> 534 ;
535 [label="squared_error = 0.0\nsamples = 1\nvalue = 6370.0"] ;
533 -> 535 ;
536 [label="Year <= 0.2\nsquared_error = 3351529.6\nsamples = 3\nvalue = 3525.0"] ;
524 -> 536 ;
537 [label="Year <= 0.2\nsquared_error = 1707810.8\nsamples = 2\nvalue = 2820.5"] ;
536 -> 537 ;
538 [label="squared_error = 0.0\nsamples = 1\nvalue = 5084.0"] ;
537 -> 538 ;
539 [label="squared_error = 0.0\nsamples = 1\nvalue = 2066.0"] ;
537 -> 539 ;
540 [label="squared_error = 0.0\nsamples = 1\nvalue = 6343.0"] ;
536 -> 540 ;
541 [label="Item_Rye <= 0.5\nsquared_error = 57025152.2\nsamples = 2\nvalue = 11460.5"] ;
523 -> 541 ;
542 [label="squared_error = 0.0\nsamples = 1\nvalue = 3909.0"] ;
541 -> 542 ;
543 [label="squared_error = 0.0\nsamples = 1\nvalue = 19012.0"] ;
541 -> 543 ;
544 [label="Country_Israel <= 0.5\nsquared_error = 49109330.5\nsamples = 103\nvalue = 16393.9"] ;
32 -> 544 ;
545 [label="Country_Algeria <= 0.5\nsquared_error = 46845682.3\nsamples = 101\nvalue = 16636.0"] ;
544 -> 545 ;
546 [label="Country_Peru <= 0.5\nsquared_error = 46425764.7\nsamples = 97\nvalue = 16962.4"] ;
545 -> 546 ;
547 [label="Country_Portugal <= 0.5\nsquared_error = 45906713.8\nsamples = 95\nvalue = 17222.3"] ;
546 -> 547 ;
548 [label="Item_Rye <= 0.5\nsquared_error = 44917259.9\nsamples = 92\nvalue = 17467.4"] ;
547 -> 548 ;
549 [label="Pesticides (tonnes) <= 0.0\nsquared_error = 28403044.5\nsamples = 48\nvalue = 16032.8"] ;
548 -> 549 ;
550 [label="Country_Kyrgyzstan <= 0.5\nsquared_error = 25503910.3\nsamples = 25\nvalue = 14105.2"] ;
549 -> 550 ;
551 [label="Country_Lithuania <= 0.5\nsquared_error = 18944560.3\nsamples = 24\nvalue = 13702.0"] ;
550 -> 551 ;
552 [label="Pesticides (tonnes) <= 0.0\nsquared_error = 14676661.9\nsamples = 23\nvalue = 13210.6"] ;
551 -> 552 ;
553 [label="Pesticides (tonnes) <= 0.0\nsquared_error = 16914637.8\nsamples = 19\nvalue = 13849.3"] ;
552 -> 553 ;
554 [label="Pesticides (tonnes) <= 0.0\nsquared_error = 14021638.0\nsamples = 17\nvalue = 12879.0"] ;
553 -> 554 ;
555 [label="Year <= 0.5\nsquared_error = 7701536.6\nsamples = 6\nvalue = 15648.9"] ;
554 -> 555 ;
556 [label="Country_Latvia <= 0.5\nsquared_error = 1827444.0\nsamples = 5\nvalue = 16582.6"] ;
555 -> 556 ;
557 [label="Pesticides (tonnes) <= 0.0\nsquared_error = 1025361.8\nsamples = 4\nvalue = 17244.4"] ;
556 -> 557 ;
558 [label="Pesticides (tonnes) <= 0.0\nsquared_error = 1180856.0\nsamples = 3\nvalue = 17704.0"] ;
557 -> 558 ;
559 [label="squared_error = 0.0\nsamples = 1\nvalue = 16334.0"] ;
558 -> 559 ;
560 [label="Country_Armenia <= 0.5\nsquared_error = 363609.0\nsamples = 2\nvalue = 18389.0"] ;
558 -> 560 ;
561 [label="squared_error = 0.0\nsamples = 1\nvalue = 18992.0"] ;
560 -> 561 ;
562 [label="squared_error = 0.0\nsamples = 1\nvalue = 17786.0"] ;
560 -> 562 ;
563 [label="squared_error = 0.0\nsamples = 1\nvalue = 16555.0"] ;
557 -> 563 ;
564 [label="squared_error = 0.0\nsamples = 1\nvalue = 14928.0"] ;
556 -> 564 ;
565 [label="squared_error = 0.0\nsamples = 1\nvalue = 9113.0"] ;
555 -> 565 ;
566 [label="Pesticides (tonnes) <= 0.0\nsquared_error = 12092283.2\nsamples = 11\nvalue = 11712.8"] ;
554 -> 566 ;
567 [label="squared_error = 0.0\nsamples = 1\nvalue = 1897.0"] ;
566 -> 567 ;
568 [label="Country_Latvia <= 0.5\nsquared_error = 7113938.7\nsamples = 10\nvalue = 12258.1"] ;
566 -> 568 ;
569 [label="Year <= 0.5\nsquared_error = 2983492.1\nsamples = 8\nvalue = 11333.6"] ;
568 -> 569 ;
570 [label="Country_Iraq <= 0.5\nsquared_error = 1770795.8\nsamples = 4\nvalue = 10281.5"] ;
569 -> 570 ;
571 [label="Year <= 0.4\nsquared_error = 29400.0\nsamples = 2\nvalue = 11110.0"] ;
570 -> 571 ;
572 [label="squared_error = 0.0\nsamples = 1\nvalue = 10900.0"] ;
571 -> 572 ;
573 [label="squared_error = 0.0\nsamples = 1\nvalue = 11250.0"] ;
571 -> 573 ;
574 [label="Year <= 0.4\nsquared_error = 1622400.9\nsamples = 2\nvalue = 8900.7"] ;
570 -> 574 ;
575 [label="squared_error = 0.0\nsamples = 1\nvalue = 10702.0"] ;
574 -> 575 ;
576 [label="squared_error = 0.0\nsamples = 1\nvalue = 8000.0"] ;
574 -> 576 ;
577 [label="Country_Cyprus <= 0.5\nsquared_error = 1658620.0\nsamples = 4\nvalue = 12536.0"] ;
569 -> 577 ;
578 [label="Pesticides (tonnes) <= 0.0\nsquared_error = 500706.9\nsamples = 3\nvalue = 12988.7"] ;
577 -> 578 ;
579 [label="squared_error = 0.0\nsamples = 1\nvalue = 13900.0"] ;
578 -> 579 ;
580 [label="Pesticides (tonnes) <= 0.0\nsquared_error = 128164.0\nsamples = 2\nvalue = 12533.0"] ;
578 -> 580 ;
581 [label="squared_error = 0.0\nsamples = 1\nvalue = 12175.0"] ;
580 -> 581 ;
582 [label="squared_error = 0.0\nsamples = 1\nvalue = 12891.0"] ;
580 -> 582 ;
583 [label="squared_error = 0.0\nsamples = 1\nvalue = 9820.0"] ;
577 -> 583 ;
584 [label="Pesticides (tonnes) <= 0.0\nsquared_error = 2124547.6\nsamples = 2\nvalue = 16880.7"] ;
568 -> 584 ;
585 [label="squared_error = 0.0\nsamples = 1\nvalue = 15850.0"] ;
584 -> 585 ;
586 [label="squared_error = 0.0\nsamples = 1\nvalue = 18942.0"] ;
584 -> 586 ;
587 [label="Pesticides (tonnes) <= 0.0\nsquared_error = 2957.0\nsamples = 2\nvalue = 19088.6"] ;
553 -> 587 ;
588 [label="squared_error = 0.0\nsamples = 1\nvalue = 19022.0"] ;
587 -> 588 ;
589 [label="squared_error = 0.0\nsamples = 1\nvalue = 19133.0"] ;
587 -> 589 ;
590 [label="Country_Lebanon <= 0.5\nsquared_error = 111411.1\nsamples = 4\nvalue = 10939.6"] ;
552 -> 590 ;
591 [label="Year <= 0.5\nsquared_error = 38845.6\nsamples = 3\nvalue = 11146.3"] ;
590 -> 591 ;
592 [label="Year <= 0.5\nsquared_error = 27.0\nsamples = 2\nvalue = 11007.0"] ;
591 -> 592 ;
593 [label="squared_error = 0.0\nsamples = 1\nvalue = 11004.0"] ;
592 -> 593 ;
594 [label="squared_error = 0.0\nsamples = 1\nvalue = 11016.0"] ;
592 -> 594 ;
595 [label="squared_error = 0.0\nsamples = 1\nvalue = 11425.0"] ;
591 -> 595 ;
596 [label="squared_error = 0.0\nsamples = 1\nvalue = 10526.0"] ;
590 -> 596 ;
597 [label="squared_error = 0.0\nsamples = 1\nvalue = 23776.0"] ;
551 -> 597 ;
598 [label="squared_error = 0.0\nsamples = 1\nvalue = 31442.0"] ;
550 -> 598 ;
599 [label="Pesticides (tonnes) <= 0.0\nsquared_error = 21122655.5\nsamples = 23\nvalue = 18527.5"] ;
549 -> 599 ;
600 [label="Pesticides (tonnes) <= 0.0\nsquared_error = 14891881.0\nsamples = 2\nvalue = 27459.0"] ;
599 -> 600 ;
601 [label="squared_error = 0.0\nsamples = 1\nvalue = 31318.0"] ;
600 -> 601 ;
602 [label="squared_error = 0.0\nsamples = 1\nvalue = 23600.0"] ;
600 -> 602 ;
603 [label="Country_Georgia <= 0.5\nsquared_error = 16214740.0\nsamples = 21\nvalue = 17969.3"] ;
599 -> 603 ;
604 [label="Pesticides (tonnes) <= 0.0\nsquared_error = 15550479.4\nsamples = 19\nvalue = 18372.9"] ;
603 -> 604 ;
605 [label="Pesticides (tonnes) <= 0.0\nsquared_error = 36915062.0\nsamples = 7\nvalue = 20177.8"] ;
604 -> 605 ;
606 [label="Pesticides (tonnes) <= 0.0\nsquared_error = 20310791.1\nsamples = 6\nvalue = 17721.4"] ;
605 -> 606 ;
607 [label="Pesticides (tonnes) <= 0.0\nsquared_error = 4050964.2\nsamples = 5\nvalue = 19396.7"] ;
606 -> 607 ;
608 [label="squared_error = 0.0\nsamples = 1\nvalue = 15221.0"] ;
607 -> 608 ;
609 [label="Year <= 0.4\nsquared_error = 676471.0\nsamples = 4\nvalue = 20231.8"] ;
607 -> 609 ;
610 [label="Country_Bulgaria <= 0.5\nsquared_error = 80266.9\nsamples = 2\nvalue = 19655.7"] ;
609 -> 610 ;
611 [label="squared_error = 0.0\nsamples = 1\nvalue = 19856.0"] ;
610 -> 611 ;
612 [label="squared_error = 0.0\nsamples = 1\nvalue = 19255.0"] ;
610 -> 612 ;
613 [label="Year <= 0.5\nsquared_error = 326041.0\nsamples = 2\nvalue = 21096.0"] ;
609 -> 613 ;
614 [label="squared_error = 0.0\nsamples = 1\nvalue = 21667.0"] ;
613 -> 614 ;
615 [label="squared_error = 0.0\nsamples = 1\nvalue = 20525.0"] ;
613 -> 615 ;
616 [label="squared_error = 0.0\nsamples = 1\nvalue = 7670.0"] ;
606 -> 616 ;
617 [label="squared_error = 0.0\nsamples = 1\nvalue = 28775.0"] ;
605 -> 617 ;
618 [label="Pesticides (tonnes) <= 0.0\nsquared_error = 3156494.0\nsamples = 12\nvalue = 17518.0"] ;
604 -> 618 ;
619 [label="Pesticides (tonnes) <= 0.0\nsquared_error = 2227159.5\nsamples = 3\nvalue = 16424.2"] ;
618 -> 619 ;
620 [label="squared_error = 0.0\nsamples = 1\nvalue = 17478.0"] ;
619 -> 620 ;
621 [label="Country_Uruguay <= 0.5\nsquared_error = 18090.2\nsamples = 2\nvalue = 14316.5"] ;
619 -> 621 ;
622 [label="squared_error = 0.0\nsamples = 1\nvalue = 14182.0"] ;
621 -> 622 ;
623 [label="squared_error = 0.0\nsamples = 1\nvalue = 14451.0"] ;
621 -> 623 ;
624 [label="Year <= 0.5\nsquared_error = 2778330.4\nsamples = 9\nvalue = 18022.8"] ;
618 -> 624 ;
625 [label="Pesticides (tonnes) <= 0.0\nsquared_error = 650534.7\nsamples = 6\nvalue = 18709.2"] ;
624 -> 625 ;
626 [label="Year <= 0.4\nsquared_error = 8010.2\nsamples = 2\nvalue = 19872.5"] ;
625 -> 626 ;
627 [label="squared_error = 0.0\nsamples = 1\nvalue = 19962.0"] ;
626 -> 627 ;
628 [label="squared_error = 0.0\nsamples = 1\nvalue = 19783.0"] ;
626 -> 628 ;
629 [label="Year <= 0.4\nsquared_error = 263309.2\nsamples = 4\nvalue = 18321.5"] ;
625 -> 629 ;
630 [label="Pesticides (tonnes) <= 0.0\nsquared_error = 20402.0\nsamples = 2\nvalue = 17985.0"] ;
629 -> 630 ;
631 [label="squared_error = 0.0\nsamples = 1\nvalue = 17783.0"] ;
630 -> 631 ;
632 [label="squared_error = 0.0\nsamples = 1\nvalue = 18086.0"] ;
630 -> 632 ;
633 [label="Pesticides (tonnes) <= 0.0\nsquared_error = 279752.0\nsamples = 2\nvalue = 18658.0"] ;
629 -> 633 ;
634 [label="squared_error = 0.0\nsamples = 1\nvalue = 18284.0"] ;
633 -> 634 ;
635 [label="squared_error = 0.0\nsamples = 1\nvalue = 19406.0"] ;
633 -> 635 ;
636 [label="Pesticides (tonnes) <= 0.0\nsquared_error = 4222818.6\nsamples = 3\nvalue = 16924.6"] ;
624 -> 636 ;
637 [label="Country_Ukraine <= 0.5\nsquared_error = 943321.7\nsamples = 2\nvalue = 17855.8"] ;
636 -> 637 ;
638 [label="squared_error = 0.0\nsamples = 1\nvalue = 19538.0"] ;
637 -> 638 ;
639 [label="squared_error = 0.0\nsamples = 1\nvalue = 17295.0"] ;
637 -> 639 ;
640 [label="squared_error = 0.0\nsamples = 1\nvalue = 13200.0"] ;
636 -> 640 ;
641 [label="Year <= 0.5\nsquared_error = 11740419.2\nsamples = 2\nvalue = 15143.8"] ;
603 -> 641 ;
642 [label="squared_error = 0.0\nsamples = 1\nvalue = 9209.0"] ;
641 -> 642 ;
643 [label="squared_error = 0.0\nsamples = 1\nvalue = 17122.0"] ;
641 -> 643 ;
644 [label="Pesticides (tonnes) <= 0.0\nsquared_error = 59127963.0\nsamples = 44\nvalue = 19162.7"] ;
548 -> 644 ;
645 [label="Pesticides (tonnes) <= 0.0\nsquared_error = 49483960.1\nsamples = 41\nvalue = 19913.1"] ;
644 -> 645 ;
646 [label="Pesticides (tonnes) <= 0.0\nsquared_error = 8123991.8\nsamples = 4\nvalue = 14191.8"] ;
645 -> 646 ;
647 [label="squared_error = 0.0\nsamples = 1\nvalue = 11592.0"] ;
646 -> 647 ;
648 [label="Year <= 0.5\nsquared_error = 7116637.7\nsamples = 3\nvalue = 15491.8"] ;
646 -> 648 ;
649 [label="squared_error = 0.0\nsamples = 1\nvalue = 19867.0"] ;
648 -> 649 ;
650 [label="Pesticides (tonnes) <= 0.0\nsquared_error = 980933.6\nsamples = 2\nvalue = 14033.3"] ;
648 -> 650 ;
651 [label="squared_error = 0.0\nsamples = 1\nvalue = 15434.0"] ;
650 -> 651 ;
652 [label="squared_error = 0.0\nsamples = 1\nvalue = 13333.0"] ;
650 -> 652 ;
653 [label="Pesticides (tonnes) <= 0.0\nsquared_error = 50029346.2\nsamples = 37\nvalue = 20515.4"] ;
645 -> 653 ;
654 [label="Pesticides (tonnes) <= 0.0\nsquared_error = 57014625.4\nsamples = 23\nvalue = 22300.9"] ;
653 -> 654 ;
655 [label="Pesticides (tonnes) <= 0.0\nsquared_error = 40364668.2\nsamples = 15\nvalue = 18964.5"] ;
654 -> 655 ;
656 [label="Pesticides (tonnes) <= 0.0\nsquared_error = 26989709.3\nsamples = 13\nvalue = 20112.8"] ;
655 -> 656 ;
657 [label="Pesticides (tonnes) <= 0.0\nsquared_error = 31011796.9\nsamples = 8\nvalue = 18551.9"] ;
656 -> 657 ;
658 [label="Pesticides (tonnes) <= 0.0\nsquared_error = 5204755.1\nsamples = 6\nvalue = 21213.2"] ;
657 -> 658 ;
659 [label="Year <= 0.4\nsquared_error = 1429648.0\nsamples = 4\nvalue = 22365.4"] ;
658 -> 659 ;
660 [label="squared_error = 0.0\nsamples = 1\nvalue = 20493.0"] ;
659 -> 660 ;
661 [label="Pesticides (tonnes) <= 0.0\nsquared_error = 348069.2\nsamples = 3\nvalue = 22989.5"] ;
659 -> 661 ;
662 [label="Country_Latvia <= 0.5\nsquared_error = 140292.2\nsamples = 2\nvalue = 23346.2"] ;
661 -> 662 ;
663 [label="squared_error = 0.0\nsamples = 1\nvalue = 23130.0"] ;
662 -> 663 ;
664 [label="squared_error = 0.0\nsamples = 1\nvalue = 23995.0"] ;
662 -> 664 ;
665 [label="squared_error = 0.0\nsamples = 1\nvalue = 22276.0"] ;
661 -> 665 ;
666 [label="Country_Latvia <= 0.5\nsquared_error = 2291226.9\nsamples = 2\nvalue = 18140.7"] ;
658 -> 666 ;
667 [label="squared_error = 0.0\nsamples = 1\nvalue = 16000.0"] ;
666 -> 667 ;
668 [label="squared_error = 0.0\nsamples = 1\nvalue = 19211.0"] ;
666 -> 668 ;
669 [label="Year <= 0.4\nsquared_error = 4452128.0\nsamples = 2\nvalue = 8794.0"] ;
657 -> 669 ;
670 [label="squared_error = 0.0\nsamples = 1\nvalue = 7302.0"] ;
669 -> 670 ;
671 [label="squared_error = 0.0\nsamples = 1\nvalue = 11778.0"] ;
669 -> 671 ;
672 [label="Country_Kyrgyzstan <= 0.5\nsquared_error = 8226677.4\nsamples = 5\nvalue = 22844.2"] ;
656 -> 672 ;
673 [label="Pesticides (tonnes) <= 0.0\nsquared_error = 2410788.2\nsamples = 4\nvalue = 21909.4"] ;
672 -> 673 ;
674 [label="Pesticides (tonnes) <= 0.0\nsquared_error = 533533.8\nsamples = 3\nvalue = 21338.8"] ;
673 -> 674 ;
675 [label="Country_Latvia <= 0.5\nsquared_error = 117264.2\nsamples = 2\nvalue = 21043.6"] ;
674 -> 675 ;
676 [label="squared_error = 0.0\nsamples = 1\nvalue = 20764.0"] ;
675 -> 676 ;
677 [label="squared_error = 0.0\nsamples = 1\nvalue = 21463.0"] ;
675 -> 677 ;
678 [label="squared_error = 0.0\nsamples = 1\nvalue = 22815.0"] ;
674 -> 678 ;
679 [label="squared_error = 0.0\nsamples = 1\nvalue = 25333.0"] ;
673 -> 679 ;
680 [label="squared_error = 0.0\nsamples = 1\nvalue = 29388.0"] ;
672 -> 680 ;
681 [label="Pesticides (tonnes) <= 0.0\nsquared_error = 13443222.2\nsamples = 2\nvalue = 6333.5"] ;
655 -> 681 ;
682 [label="squared_error = 0.0\nsamples = 1\nvalue = 2667.0"] ;
681 -> 682 ;
683 [label="squared_error = 0.0\nsamples = 1\nvalue = 10000.0"] ;
681 -> 683 ;
684 [label="Country_Bulgaria <= 0.5\nsquared_error = 23524482.7\nsamples = 8\nvalue = 28973.8"] ;
654 -> 684 ;
685 [label="Pesticides (tonnes) <= 0.0\nsquared_error = 17539163.7\nsamples = 7\nvalue = 29796.5"] ;
684 -> 685 ;
686 [label="squared_error = 0.0\nsamples = 1\nvalue = 24746.0"] ;
685 -> 686 ;
687 [label="Year <= 0.5\nsquared_error = 14508654.3\nsamples = 6\nvalue = 30918.9"] ;
685 -> 687 ;
688 [label="Pesticides (tonnes) <= 0.0\nsquared_error = 10789903.9\nsamples = 4\nvalue = 29548.5"] ;
687 -> 688 ;
689 [label="Year <= 0.4\nsquared_error = 2278551.2\nsamples = 3\nvalue = 28215.0"] ;
688 -> 689 ;
690 [label="squared_error = 0.0\nsamples = 1\nvalue = 29476.0"] ;
689 -> 690 ;
691 [label="Pesticides (tonnes) <= 0.0\nsquared_error = 2030784.2\nsamples = 2\nvalue = 27374.3"] ;
689 -> 691 ;
692 [label="squared_error = 0.0\nsamples = 1\nvalue = 25359.0"] ;
691 -> 692 ;
693 [label="squared_error = 0.0\nsamples = 1\nvalue = 28382.0"] ;
691 -> 693 ;
694 [label="squared_error = 0.0\nsamples = 1\nvalue = 36216.0"] ;
688 -> 694 ;
695 [label="Pesticides (tonnes) <= 0.0\nsquared_error = 10678360.9\nsamples = 2\nvalue = 33659.7"] ;
687 -> 695 ;
696 [label="squared_error = 0.0\nsamples = 1\nvalue = 38281.0"] ;
695 -> 696 ;
697 [label="squared_error = 0.0\nsamples = 1\nvalue = 31349.0"] ;
695 -> 697 ;
698 [label="squared_error = 0.0\nsamples = 1\nvalue = 19923.0"] ;
684 -> 698 ;
699 [label="Pesticides (tonnes) <= 0.0\nsquared_error = 23219773.3\nsamples = 14\nvalue = 17454.4"] ;
653 -> 699 ;
700 [label="Pesticides (tonnes) <= 0.0\nsquared_error = 13389793.7\nsamples = 5\nvalue = 11882.6"] ;
699 -> 700 ;
701 [label="Year <= 0.4\nsquared_error = 9054081.0\nsamples = 2\nvalue = 16991.0"] ;
700 -> 701 ;
702 [label="squared_error = 0.0\nsamples = 1\nvalue = 20000.0"] ;
701 -> 702 ;
703 [label="squared_error = 0.0\nsamples = 1\nvalue = 13982.0"] ;
701 -> 703 ;
704 [label="Year <= 0.5\nsquared_error = 510295.0\nsamples = 3\nvalue = 9839.2"] ;
700 -> 704 ;
705 [label="Pesticides (tonnes) <= 0.0\nsquared_error = 34782.2\nsamples = 2\nvalue = 10186.5"] ;
704 -> 705 ;
706 [label="squared_error = 0.0\nsamples = 1\nvalue = 10373.0"] ;
705 -> 706 ;
707 [label="squared_error = 0.0\nsamples = 1\nvalue = 10000.0"] ;
705 -> 707 ;
708 [label="squared_error = 0.0\nsamples = 1\nvalue = 8450.0"] ;
704 -> 708 ;
709 [label="Country_Romania <= 0.5\nsquared_error = 4850569.1\nsamples = 9\nvalue = 20240.4"] ;
699 -> 709 ;
710 [label="Country_Greece <= 0.5\nsquared_error = 2373851.4\nsamples = 8\nvalue = 20925.4"] ;
709 -> 710 ;
711 [label="Pesticides (tonnes) <= 0.0\nsquared_error = 164605.7\nsamples = 6\nvalue = 20252.2"] ;
710 -> 711 ;
712 [label="squared_error = 0.0\nsamples = 1\nvalue = 21126.0"] ;
711 -> 712 ;
713 [label="Country_Ukraine <= 0.5\nsquared_error = 63477.7\nsamples = 5\nvalue = 20127.4"] ;
711 -> 713 ;
714 [label="squared_error = 0.0\nsamples = 3\nvalue = 20000.0"] ;
713 -> 714 ;
715 [label="Pesticides (tonnes) <= 0.0\nsquared_error = 80089.0\nsamples = 2\nvalue = 20446.0"] ;
713 -> 715 ;
716 [label="squared_error = 0.0\nsamples = 1\nvalue = 20163.0"] ;
715 -> 716 ;
717 [label="squared_error = 0.0\nsamples = 1\nvalue = 20729.0"] ;
715 -> 717 ;
718 [label="Year <= 0.5\nsquared_error = 4073422.7\nsamples = 2\nvalue = 22271.8"] ;
710 -> 718 ;
719 [label="squared_error = 0.0\nsamples = 1\nvalue = 23437.0"] ;
718 -> 719 ;
720 [label="squared_error = 0.0\nsamples = 1\nvalue = 18776.0"] ;
718 -> 720 ;
721 [label="squared_error = 0.0\nsamples = 1\nvalue = 16130.0"] ;
709 -> 721 ;
722 [label="Year <= 0.5\nsquared_error = 1468430.9\nsamples = 3\nvalue = 3403.3"] ;
644 -> 722 ;
723 [label="Year <= 0.4\nsquared_error = 199362.2\nsamples = 2\nvalue = 4220.5"] ;
722 -> 723 ;
724 [label="squared_error = 0.0\nsamples = 1\nvalue = 3774.0"] ;
723 -> 724 ;
725 [label="squared_error = 0.0\nsamples = 1\nvalue = 4667.0"] ;
723 -> 725 ;
726 [label="squared_error = 0.0\nsamples = 1\nvalue = 1769.0"] ;
722 -> 726 ;
727 [label="Item_Oats <= 0.5\nsquared_error = 1527810.2\nsamples = 3\nvalue = 8399.8"] ;
547 -> 727 ;
728 [label="Pesticides (tonnes) <= 0.0\nsquared_error = 92450.0\nsamples = 2\nvalue = 9097.0"] ;
727 -> 728 ;
729 [label="squared_error = 0.0\nsamples = 1\nvalue = 9527.0"] ;
728 -> 729 ;
730 [label="squared_error = 0.0\nsamples = 1\nvalue = 8882.0"] ;
728 -> 730 ;
731 [label="squared_error = 0.0\nsamples = 1\nvalue = 6308.0"] ;
727 -> 731 ;
732 [label="Item_Rye <= 0.5\nsquared_error = 620559.4\nsamples = 2\nvalue = 9270.2"] ;
546 -> 732 ;
733 [label="squared_error = 0.0\nsamples = 1\nvalue = 10235.0"] ;
732 -> 733 ;
734 [label="squared_error = 0.0\nsamples = 1\nvalue = 8627.0"] ;
732 -> 734 ;
735 [label="Year <= 0.5\nsquared_error = 2788932.1\nsamples = 4\nvalue = 9501.1"] ;
545 -> 735 ;
736 [label="Year <= 0.4\nsquared_error = 406406.2\nsamples = 2\nvalue = 8147.5"] ;
735 -> 736 ;
737 [label="squared_error = 0.0\nsamples = 1\nvalue = 8785.0"] ;
736 -> 737 ;
738 [label="squared_error = 0.0\nsamples = 1\nvalue = 7510.0"] ;
736 -> 738 ;
739 [label="Year <= 0.5\nsquared_error = 264992.0\nsamples = 2\nvalue = 11306.0"] ;
735 -> 739 ;
740 [label="squared_error = 0.0\nsamples = 1\nvalue = 10942.0"] ;
739 -> 740 ;
741 [label="squared_error = 0.0\nsamples = 1\nvalue = 12034.0"] ;
739 -> 741 ;
742 [label="Pesticides (tonnes) <= 0.0\nsquared_error = 46208.0\nsamples = 2\nvalue = 3484.0"] ;
544 -> 742 ;
743 [label="squared_error = 0.0\nsamples = 1\nvalue = 3636.0"] ;
742 -> 743 ;
744 [label="squared_error = 0.0\nsamples = 1\nvalue = 3180.0"] ;
742 -> 744 ;
745 [label="Year <= 0.0\nsquared_error = 186303.9\nsamples = 6\nvalue = 1597.7"] ;
31 -> 745 ;
746 [label="squared_error = 0.0\nsamples = 1\nvalue = 723.0"] ;
745 -> 746 ;
747 [label="Year <= 0.2\nsquared_error = 68580.2\nsamples = 5\nvalue = 1743.5"] ;
745 -> 747 ;
748 [label="Year <= 0.1\nsquared_error = 15370.9\nsamples = 2\nvalue = 1524.7"] ;
747 -> 748 ;
749 [label="squared_error = 0.0\nsamples = 1\nvalue = 1437.0"] ;
748 -> 749 ;
750 [label="squared_error = 0.0\nsamples = 1\nvalue = 1700.0"] ;
748 -> 750 ;
751 [label="Pesticides (tonnes) <= 0.0\nsquared_error = 26013.6\nsamples = 3\nvalue = 1962.3"] ;
747 -> 751 ;
752 [label="Year <= 0.3\nsquared_error = 2500.0\nsamples = 2\nvalue = 1852.0"] ;
751 -> 752 ;
753 [label="squared_error = 0.0\nsamples = 1\nvalue = 1802.0"] ;
752 -> 753 ;
754 [label="squared_error = 0.0\nsamples = 1\nvalue = 1902.0"] ;
752 -> 754 ;
755 [label="squared_error = 0.0\nsamples = 1\nvalue = 2183.0"] ;
751 -> 755 ;
756 [label="Year <= 0.2\nsquared_error = 5997376.0\nsamples = 21\nvalue = 8573.6"] ;
30 -> 756 ;
757 [label="Pesticides (tonnes) <= 0.0\nsquared_error = 3562768.7\nsamples = 9\nvalue = 10180.5"] ;
756 -> 757 ;
758 [label="Year <= 0.1\nsquared_error = 3128984.0\nsamples = 8\nvalue = 9743.4"] ;
757 -> 758 ;
759 [label="Item_Rye <= 0.5\nsquared_error = 2195249.7\nsamples = 4\nvalue = 10397.2"] ;
758 -> 759 ;
760 [label="Year <= 0.0\nsquared_error = 2342430.2\nsamples = 2\nvalue = 12619.5"] ;
759 -> 760 ;
761 [label="squared_error = 0.0\nsamples = 1\nvalue = 11089.0"] ;
760 -> 761 ;
762 [label="squared_error = 0.0\nsamples = 1\nvalue = 14150.0"] ;
760 -> 762 ;
763 [label="Pesticides (tonnes) <= 0.0\nsquared_error = 339048.5\nsamples = 2\nvalue = 9762.3"] ;
759 -> 763 ;
764 [label="squared_error = 0.0\nsamples = 1\nvalue = 8336.0"] ;
763 -> 764 ;
765 [label="squared_error = 0.0\nsamples = 1\nvalue = 10000.0"] ;
763 -> 765 ;
766 [label="Item_Rye <= 0.5\nsquared_error = 2926522.2\nsamples = 4\nvalue = 8762.7"] ;
758 -> 766 ;
767 [label="Year <= 0.1\nsquared_error = 174724.0\nsamples = 2\nvalue = 6368.0"] ;
766 -> 767 ;
768 [label="squared_error = 0.0\nsamples = 1\nvalue = 6786.0"] ;
767 -> 768 ;
769 [label="squared_error = 0.0\nsamples = 1\nvalue = 5950.0"] ;
767 -> 769 ;
770 [label="Pesticides (tonnes) <= 0.0\nsquared_error = 1600.0\nsamples = 2\nvalue = 9960.0"] ;
766 -> 770 ;
771 [label="squared_error = 0.0\nsamples = 1\nvalue = 10000.0"] ;
770 -> 771 ;
772 [label="squared_error = 0.0\nsamples = 1\nvalue = 9920.0"] ;
770 -> 772 ;
773 [label="squared_error = 0.0\nsamples = 1\nvalue = 12366.0"] ;
757 -> 773 ;
774 [label="Item_Rye <= 0.5\nsquared_error = 3267620.9\nsamples = 12\nvalue = 6966.7"] ;
756 -> 774 ;
775 [label="Year <= 0.4\nsquared_error = 3000062.5\nsamples = 8\nvalue = 6258.8"] ;
774 -> 775 ;
776 [label="Year <= 0.3\nsquared_error = 2736615.8\nsamples = 5\nvalue = 5319.1"] ;
775 -> 776 ;
777 [label="Year <= 0.2\nsquared_error = 3532482.0\nsamples = 2\nvalue = 6275.0"] ;
776 -> 777 ;
778 [label="squared_error = 0.0\nsamples = 1\nvalue = 4946.0"] ;
777 -> 778 ;
779 [label="squared_error = 0.0\nsamples = 1\nvalue = 8933.0"] ;
777 -> 779 ;
780 [label="Year <= 0.4\nsquared_error = 940533.7\nsamples = 3\nvalue = 4602.2"] ;
776 -> 780 ;
781 [label="Pesticides (tonnes) <= 0.0\nsquared_error = 771762.2\nsamples = 2\nvalue = 3857.5"] ;
780 -> 781 ;
782 [label="squared_error = 0.0\nsamples = 1\nvalue = 4736.0"] ;
781 -> 782 ;
783 [label="squared_error = 0.0\nsamples = 1\nvalue = 2979.0"] ;
781 -> 783 ;
784 [label="squared_error = 0.0\nsamples = 1\nvalue = 5347.0"] ;
780 -> 784 ;
785 [label="Pesticides (tonnes) <= 0.0\nsquared_error = 402473.0\nsamples = 3\nvalue = 7574.2"] ;
775 -> 785 ;
786 [label="squared_error = 0.0\nsamples = 1\nvalue = 7105.0"] ;
785 -> 786 ;
787 [label="Year <= 0.5\nsquared_error = 180625.0\nsamples = 2\nvalue = 8278.0"] ;
785 -> 787 ;
788 [label="squared_error = 0.0\nsamples = 1\nvalue = 7853.0"] ;
787 -> 788 ;
789 [label="squared_error = 0.0\nsamples = 1\nvalue = 8703.0"] ;
787 -> 789 ;
790 [label="Year <= 0.4\nsquared_error = 795861.6\nsamples = 4\nvalue = 8382.5"] ;
774 -> 790 ;
791 [label="Pesticides (tonnes) <= 0.0\nsquared_error = 214369.0\nsamples = 2\nvalue = 9537.0"] ;
790 -> 791 ;
792 [label="squared_error = 0.0\nsamples = 1\nvalue = 10000.0"] ;
791 -> 792 ;
793 [label="squared_error = 0.0\nsamples = 1\nvalue = 9074.0"] ;
791 -> 793 ;
794 [label="Pesticides (tonnes) <= 0.0\nsquared_error = 86955.2\nsamples = 2\nvalue = 7805.2"] ;
790 -> 794 ;
795 [label="squared_error = 0.0\nsamples = 1\nvalue = 8316.0"] ;
794 -> 795 ;
796 [label="squared_error = 0.0\nsamples = 1\nvalue = 7635.0"] ;
794 -> 796 ;
797 [label="Item_Rye <= 0.5\nsquared_error = 10635135.8\nsamples = 16\nvalue = 6692.5"] ;
29 -> 797 ;
798 [label="Pesticides (tonnes) <= 0.0\nsquared_error = 10322905.9\nsamples = 7\nvalue = 8781.1"] ;
797 -> 798 ;
799 [label="Year <= 0.2\nsquared_error = 8649121.3\nsamples = 4\nvalue = 10408.7"] ;
798 -> 799 ;
800 [label="Pesticides (tonnes) <= 0.0\nsquared_error = 5808100.0\nsamples = 2\nvalue = 6662.0"] ;
799 -> 800 ;
801 [label="squared_error = 0.0\nsamples = 1\nvalue = 4252.0"] ;
800 -> 801 ;
802 [label="squared_error = 0.0\nsamples = 1\nvalue = 9072.0"] ;
800 -> 802 ;
803 [label="Year <= 0.3\nsquared_error = 1924323.8\nsamples = 2\nvalue = 11907.4"] ;
799 -> 803 ;
804 [label="squared_error = 0.0\nsamples = 1\nvalue = 12601.0"] ;
803 -> 804 ;
805 [label="squared_error = 0.0\nsamples = 1\nvalue = 9133.0"] ;
803 -> 805 ;
806 [label="Year <= 0.3\nsquared_error = 502956.7\nsamples = 3\nvalue = 5932.8"] ;
798 -> 806 ;
807 [label="Pesticides (tonnes) <= 0.0\nsquared_error = 210222.2\nsamples = 2\nvalue = 6563.5"] ;
806 -> 807 ;
808 [label="squared_error = 0.0\nsamples = 1\nvalue = 6105.0"] ;
807 -> 808 ;
809 [label="squared_error = 0.0\nsamples = 1\nvalue = 7022.0"] ;
807 -> 809 ;
810 [label="squared_error = 0.0\nsamples = 1\nvalue = 5302.0"] ;
806 -> 810 ;
811 [label="Year <= 0.1\nsquared_error = 3257022.9\nsamples = 9\nvalue = 4777.9"] ;
797 -> 811 ;
812 [label="Pesticides (tonnes) <= 0.0\nsquared_error = 105576.6\nsamples = 4\nvalue = 2663.4"] ;
811 -> 812 ;
813 [label="squared_error = 0.0\nsamples = 1\nvalue = 3136.0"] ;
812 -> 813 ;
814 [label="Pesticides (tonnes) <= 0.0\nsquared_error = 62173.7\nsamples = 3\nvalue = 2545.2"] ;
812 -> 814 ;
815 [label="squared_error = 0.0\nsamples = 1\nvalue = 2186.0"] ;
814 -> 815 ;
816 [label="Year <= 0.0\nsquared_error = 25538.0\nsamples = 2\nvalue = 2665.0"] ;
814 -> 816 ;
817 [label="squared_error = 0.0\nsamples = 1\nvalue = 2891.0"] ;
816 -> 817 ;
818 [label="squared_error = 0.0\nsamples = 1\nvalue = 2552.0"] ;
816 -> 818 ;
819 [label="Pesticides (tonnes) <= 0.0\nsquared_error = 33140.8\nsamples = 5\nvalue = 6288.3"] ;
811 -> 819 ;
820 [label="Year <= 0.2\nsquared_error = 6498.0\nsamples = 2\nvalue = 6457.0"] ;
819 -> 820 ;
821 [label="squared_error = 0.0\nsamples = 1\nvalue = 6571.0"] ;
820 -> 821 ;
822 [label="squared_error = 0.0\nsamples = 1\nvalue = 6400.0"] ;
820 -> 822 ;
823 [label="Year <= 0.4\nsquared_error = 15763.2\nsamples = 3\nvalue = 6161.8"] ;
819 -> 823 ;
824 [label="Pesticides (tonnes) <= 0.0\nsquared_error = 2837.6\nsamples = 2\nvalue = 6094.3"] ;
823 -> 824 ;
825 [label="squared_error = 0.0\nsamples = 1\nvalue = 6132.0"] ;
824 -> 825 ;
826 [label="squared_error = 0.0\nsamples = 1\nvalue = 6019.0"] ;
824 -> 826 ;
827 [label="squared_error = 0.0\nsamples = 1\nvalue = 6364.0"] ;
823 -> 827 ;
828 [label="Pesticides (tonnes) <= 0.0\nsquared_error = 6547726.6\nsamples = 11\nvalue = 23951.9"] ;
28 -> 828 ;
829 [label="Pesticides (tonnes) <= 0.0\nsquared_error = 705470.9\nsamples = 3\nvalue = 26195.3"] ;
828 -> 829 ;
830 [label="squared_error = 0.0\nsamples = 1\nvalue = 27303.0"] ;
829 -> 830 ;
831 [label="Pesticides (tonnes) <= 0.0\nsquared_error = 138012.2\nsamples = 2\nvalue = 25641.5"] ;
829 -> 831 ;
832 [label="squared_error = 0.0\nsamples = 1\nvalue = 25270.0"] ;
831 -> 832 ;
833 [label="squared_error = 0.0\nsamples = 1\nvalue = 26013.0"] ;
831 -> 833 ;
834 [label="Year <= 0.4\nsquared_error = 5221299.0\nsamples = 8\nvalue = 22605.8"] ;
828 -> 834 ;
835 [label="Year <= 0.3\nsquared_error = 3585307.8\nsamples = 5\nvalue = 20756.6"] ;
834 -> 835 ;
836 [label="Item_Oats <= 0.5\nsquared_error = 1961206.2\nsamples = 3\nvalue = 22023.3"] ;
835 -> 836 ;
837 [label="Year <= 0.2\nsquared_error = 178929.0\nsamples = 2\nvalue = 22983.0"] ;
836 -> 837 ;
838 [label="squared_error = 0.0\nsamples = 1\nvalue = 22560.0"] ;
837 -> 838 ;
839 [label="squared_error = 0.0\nsamples = 1\nvalue = 23406.0"] ;
837 -> 839 ;
840 [label="squared_error = 0.0\nsamples = 1\nvalue = 20104.0"] ;
836 -> 840 ;
841 [label="Item_Oats <= 0.5\nsquared_error = 4160.2\nsamples = 2\nvalue = 18856.5"] ;
835 -> 841 ;
842 [label="squared_error = 0.0\nsamples = 1\nvalue = 18792.0"] ;
841 -> 842 ;
843 [label="squared_error = 0.0\nsamples = 1\nvalue = 18921.0"] ;
841 -> 843 ;
844 [label="Pesticides (tonnes) <= 0.0\nsquared_error = 18208.8\nsamples = 3\nvalue = 24455.0"] ;
834 -> 844 ;
845 [label="Item_Rye <= 0.5\nsquared_error = 18560.2\nsamples = 2\nvalue = 24386.3"] ;
844 -> 845 ;
846 [label="squared_error = 0.0\nsamples = 1\nvalue = 24579.0"] ;
845 -> 846 ;
847 [label="squared_error = 0.0\nsamples = 1\nvalue = 24290.0"] ;
845 -> 847 ;
848 [label="squared_error = 0.0\nsamples = 1\nvalue = 24558.0"] ;
844 -> 848 ;
849 [label="Country_Republic of Korea <= 0.5\nsquared_error = 41888796.5\nsamples = 81\nvalue = 10582.6"] ;
27 -> 849 ;
850 [label="Country_Australia <= 0.5\nsquared_error = 13301364.0\nsamples = 75\nvalue = 9431.3"] ;
849 -> 850 ;
851 [label="Country_Portugal <= 0.5\nsquared_error = 10198311.8\nsamples = 73\nvalue = 9149.5"] ;
850 -> 851 ;
852 [label="Country_Poland <= 0.5\nsquared_error = 7795889.6\nsamples = 65\nvalue = 8739.0"] ;
851 -> 852 ;
853 [label="Country_Ethiopia <= 0.5\nsquared_error = 6995625.6\nsamples = 56\nvalue = 8239.9"] ;
852 -> 853 ;
854 [label="Country_Spain <= 0.5\nsquared_error = 6394510.9\nsamples = 48\nvalue = 7791.7"] ;
853 -> 854 ;
855 [label="Country_Georgia <= 0.5\nsquared_error = 5619214.8\nsamples = 47\nvalue = 7687.5"] ;
854 -> 855 ;
856 [label="Country_Ukraine <= 0.5\nsquared_error = 5385886.4\nsamples = 42\nvalue = 7986.9"] ;
855 -> 856 ;
857 [label="Country_Argentina <= 0.5\nsquared_error = 4610148.9\nsamples = 39\nvalue = 8195.5"] ;
856 -> 857 ;
858 [label="Year <= 0.1\nsquared_error = 4177237.6\nsamples = 37\nvalue = 8025.1"] ;
857 -> 858 ;
859 [label="Pesticides (tonnes) <= 0.0\nsquared_error = 1336875.8\nsamples = 4\nvalue = 9944.9"] ;
858 -> 859 ;
860 [label="Year <= 0.0\nsquared_error = 1791093.6\nsamples = 2\nvalue = 9194.7"] ;
859 -> 860 ;
861 [label="squared_error = 0.0\nsamples = 1\nvalue = 10141.0"] ;
860 -> 861 ;
862 [label="squared_error = 0.0\nsamples = 1\nvalue = 7302.0"] ;
860 -> 862 ;
863 [label="Pesticides (tonnes) <= 0.0\nsquared_error = 257556.2\nsamples = 2\nvalue = 10507.5"] ;
859 -> 863 ;
864 [label="squared_error = 0.0\nsamples = 1\nvalue = 11015.0"] ;
863 -> 864 ;
865 [label="squared_error = 0.0\nsamples = 1\nvalue = 10000.0"] ;
863 -> 865 ;
866 [label="Pesticides (tonnes) <= 0.0\nsquared_error = 4017850.2\nsamples = 33\nvalue = 7789.3"] ;
858 -> 866 ;
867 [label="Pesticides (tonnes) <= 0.0\nsquared_error = 3739421.5\nsamples = 25\nvalue = 8310.9"] ;
866 -> 867 ;
868 [label="Pesticides (tonnes) <= 0.0\nsquared_error = 867.0\nsamples = 7\nvalue = 6648.6"] ;
867 -> 868 ;
869 [label="Pesticides (tonnes) <= 0.0\nsquared_error = 1057.0\nsamples = 3\nvalue = 6630.2"] ;
868 -> 869 ;
870 [label="squared_error = 0.0\nsamples = 1\nvalue = 6667.0"] ;
869 -> 870 ;
871 [label="Pesticides (tonnes) <= 0.0\nsquared_error = 256.9\nsamples = 2\nvalue = 6605.7"] ;
869 -> 871 ;
872 [label="squared_error = 0.0\nsamples = 1\nvalue = 6617.0"] ;
871 -> 872 ;
873 [label="squared_error = 0.0\nsamples = 1\nvalue = 6583.0"] ;
871 -> 873 ;
874 [label="squared_error = 0.0\nsamples = 4\nvalue = 6667.0"] ;
868 -> 874 ;
875 [label="Year <= 0.3\nsquared_error = 3757462.2\nsamples = 18\nvalue = 8865.0"] ;
867 -> 875 ;
876 [label="Country_Bulgaria <= 0.5\nsquared_error = 822577.9\nsamples = 6\nvalue = 7843.1"] ;
875 -> 876 ;
877 [label="Year <= 0.2\nsquared_error = 178122.5\nsamples = 3\nvalue = 8349.2"] ;
876 -> 877 ;
878 [label="Year <= 0.2\nsquared_error = 72864.2\nsamples = 2\nvalue = 8502.4"] ;
877 -> 878 ;
879 [label="squared_error = 0.0\nsamples = 1\nvalue = 8282.0"] ;
878 -> 879 ;
880 [label="squared_error = 0.0\nsamples = 1\nvalue = 8833.0"] ;
878 -> 880 ;
881 [label="squared_error = 0.0\nsamples = 1\nvalue = 7583.0"] ;
877 -> 881 ;
882 [label="Year <= 0.2\nsquared_error = 828873.0\nsamples = 3\nvalue = 7084.0"] ;
876 -> 882 ;
883 [label="Pesticides (tonnes) <= 0.0\nsquared_error = 793800.0\nsamples = 2\nvalue = 6805.0"] ;
882 -> 883 ;
884 [label="squared_error = 0.0\nsamples = 1\nvalue = 5545.0"] ;
883 -> 884 ;
885 [label="squared_error = 0.0\nsamples = 1\nvalue = 7435.0"] ;
883 -> 885 ;
886 [label="squared_error = 0.0\nsamples = 1\nvalue = 7921.0"] ;
882 -> 886 ;
887 [label="Pesticides (tonnes) <= 0.0\nsquared_error = 4441643.5\nsamples = 12\nvalue = 9376.0"] ;
875 -> 887 ;
888 [label="Year <= 0.5\nsquared_error = 1056687.0\nsamples = 9\nvalue = 8890.2"] ;
887 -> 888 ;
889 [label="Year <= 0.4\nsquared_error = 866888.4\nsamples = 7\nvalue = 8605.1"] ;
888 -> 889 ;
890 [label="Year <= 0.3\nsquared_error = 337060.3\nsamples = 4\nvalue = 9241.0"] ;
889 -> 890 ;
891 [label="squared_error = 0.0\nsamples = 1\nvalue = 8747.0"] ;
890 -> 891 ;
892 [label="Year <= 0.3\nsquared_error = 27250.9\nsamples = 3\nvalue = 9899.7"] ;
890 -> 892 ;
893 [label="squared_error = 0.0\nsamples = 1\nvalue = 10127.0"] ;
892 -> 893 ;
894 [label="Year <= 0.4\nsquared_error = 2116.0\nsamples = 2\nvalue = 9786.0"] ;
892 -> 894 ;
895 [label="squared_error = 0.0\nsamples = 1\nvalue = 9832.0"] ;
894 -> 895 ;
896 [label="squared_error = 0.0\nsamples = 1\nvalue = 9740.0"] ;
894 -> 896 ;
897 [label="Country_Bulgaria <= 0.5\nsquared_error = 462792.5\nsamples = 3\nvalue = 7863.2"] ;
889 -> 897 ;
898 [label="Year <= 0.4\nsquared_error = 560520.2\nsamples = 2\nvalue = 8074.2"] ;
897 -> 898 ;
899 [label="squared_error = 0.0\nsamples = 1\nvalue = 7642.0"] ;
898 -> 899 ;
900 [label="squared_error = 0.0\nsamples = 1\nvalue = 9371.0"] ;
898 -> 900 ;
901 [label="squared_error = 0.0\nsamples = 1\nvalue = 7441.0"] ;
897 -> 901 ;
902 [label="Pesticides (tonnes) <= 0.0\nsquared_error = 490.9\nsamples = 2\nvalue = 10125.7"] ;
888 -> 902 ;
903 [label="squared_error = 0.0\nsamples = 1\nvalue = 10157.0"] ;
902 -> 903 ;
904 [label="squared_error = 0.0\nsamples = 1\nvalue = 10110.0"] ;
902 -> 904 ;
905 [label="Pesticides (tonnes) <= 0.0\nsquared_error = 13261193.7\nsamples = 3\nvalue = 11319.2"] ;
887 -> 905 ;
906 [label="squared_error = 0.0\nsamples = 1\nvalue = 17285.0"] ;
905 -> 906 ;
907 [label="Pesticides (tonnes) <= 0.0\nsquared_error = 1863736.9\nsamples = 2\nvalue = 9330.7"] ;
905 -> 907 ;
908 [label="squared_error = 0.0\nsamples = 1\nvalue = 7400.0"] ;
907 -> 908 ;
909 [label="squared_error = 0.0\nsamples = 1\nvalue = 10296.0"] ;
907 -> 909 ;
910 [label="Country_South Africa <= 0.5\nsquared_error = 2526348.9\nsamples = 8\nvalue = 6561.9"] ;
866 -> 910 ;
911 [label="Year <= 0.4\nsquared_error = 1309063.8\nsamples = 2\nvalue = 4901.1"] ;
910 -> 911 ;
912 [label="squared_error = 0.0\nsamples = 1\nvalue = 3580.0"] ;
911 -> 912 ;
913 [label="squared_error = 0.0\nsamples = 1\nvalue = 5892.0"] ;
911 -> 913 ;
914 [label="Year <= 0.4\nsquared_error = 96129.6\nsamples = 6\nvalue = 7724.5"] ;
910 -> 914 ;
915 [label="Year <= 0.4\nsquared_error = 19858.2\nsamples = 4\nvalue = 7586.6"] ;
914 -> 915 ;
916 [label="Pesticides (tonnes) <= 0.0\nsquared_error = 10200.1\nsamples = 3\nvalue = 7522.8"] ;
915 -> 916 ;
917 [label="squared_error = 0.0\nsamples = 2\nvalue = 7568.0"] ;
916 -> 917 ;
918 [label="squared_error = 0.0\nsamples = 1\nvalue = 7297.0"] ;
916 -> 918 ;
919 [label="squared_error = 0.0\nsamples = 1\nvalue = 7778.0"] ;
915 -> 919 ;
920 [label="Year <= 0.5\nsquared_error = 21025.0\nsamples = 2\nvalue = 8276.0"] ;
914 -> 920 ;
921 [label="squared_error = 0.0\nsamples = 1\nvalue = 8131.0"] ;
920 -> 921 ;
922 [label="squared_error = 0.0\nsamples = 1\nvalue = 8421.0"] ;
920 -> 922 ;
923 [label="Year <= 0.1\nsquared_error = 4170.9\nsamples = 2\nvalue = 11831.7"] ;
857 -> 923 ;
924 [label="squared_error = 0.0\nsamples = 1\nvalue = 11923.0"] ;
923 -> 924 ;
925 [label="squared_error = 0.0\nsamples = 1\nvalue = 11786.0"] ;
923 -> 925 ;
926 [label="Pesticides (tonnes) <= 0.0\nsquared_error = 36566.2\nsamples = 3\nvalue = 3328.3"] ;
856 -> 926 ;
927 [label="squared_error = 0.0\nsamples = 1\nvalue = 3529.0"] ;
926 -> 927 ;
928 [label="Pesticides (tonnes) <= 0.0\nsquared_error = 24649.0\nsamples = 2\nvalue = 3228.0"] ;
926 -> 928 ;
929 [label="squared_error = 0.0\nsamples = 1\nvalue = 3071.0"] ;
928 -> 929 ;
930 [label="squared_error = 0.0\nsamples = 1\nvalue = 3385.0"] ;
928 -> 930 ;
931 [label="Year <= 0.2\nsquared_error = 12010.5\nsamples = 5\nvalue = 5067.5"] ;
855 -> 931 ;
932 [label="Year <= 0.2\nsquared_error = 14908.5\nsamples = 4\nvalue = 5135.0"] ;
931 -> 932 ;
933 [label="Year <= 0.1\nsquared_error = 2454.0\nsamples = 3\nvalue = 5069.0"] ;
932 -> 933 ;
934 [label="squared_error = 0.0\nsamples = 1\nvalue = 5000.0"] ;
933 -> 934 ;
935 [label="Year <= 0.1\nsquared_error = 110.2\nsamples = 2\nvalue = 5103.5"] ;
933 -> 935 ;
936 [label="squared_error = 0.0\nsamples = 1\nvalue = 5093.0"] ;
935 -> 936 ;
937 [label="squared_error = 0.0\nsamples = 1\nvalue = 5114.0"] ;
935 -> 937 ;
938 [label="squared_error = 0.0\nsamples = 1\nvalue = 5333.0"] ;
932 -> 938 ;
939 [label="squared_error = 0.0\nsamples = 1\nvalue = 5000.0"] ;
931 -> 939 ;
940 [label="squared_error = 0.0\nsamples = 1\nvalue = 15917.0"] ;
854 -> 940 ;
941 [label="Pesticides (tonnes) <= 0.0\nsquared_error = 923704.1\nsamples = 8\nvalue = 11190.6"] ;
853 -> 941 ;
942 [label="Year <= 0.1\nsquared_error = 6942.0\nsamples = 4\nvalue = 10440.4"] ;
941 -> 942 ;
943 [label="squared_error = 0.0\nsamples = 1\nvalue = 10345.0"] ;
942 -> 943 ;
944 [label="Year <= 0.3\nsquared_error = 4619.0\nsamples = 3\nvalue = 10478.6"] ;
942 -> 944 ;
945 [label="Year <= 0.2\nsquared_error = 5202.0\nsamples = 2\nvalue = 10447.0"] ;
944 -> 945 ;
946 [label="squared_error = 0.0\nsamples = 1\nvalue = 10498.0"] ;
945 -> 946 ;
947 [label="squared_error = 0.0\nsamples = 1\nvalue = 10345.0"] ;
945 -> 947 ;
948 [label="squared_error = 0.0\nsamples = 1\nvalue = 10526.0"] ;
944 -> 948 ;
949 [label="Pesticides (tonnes) <= 0.0\nsquared_error = 316391.0\nsamples = 4\nvalue = 12240.8"] ;
941 -> 949 ;
950 [label="squared_error = 0.0\nsamples = 1\nvalue = 13362.0"] ;
949 -> 950 ;
951 [label="Year <= 0.5\nsquared_error = 2648.2\nsamples = 3\nvalue = 11960.5"] ;
949 -> 951 ;
952 [label="Pesticides (tonnes) <= 0.0\nsquared_error = 50.0\nsamples = 2\nvalue = 11990.0"] ;
951 -> 952 ;
953 [label="squared_error = 0.0\nsamples = 1\nvalue = 12000.0"] ;
952 -> 953 ;
954 [label="squared_error = 0.0\nsamples = 1\nvalue = 11985.0"] ;
952 -> 954 ;
955 [label="squared_error = 0.0\nsamples = 1\nvalue = 11872.0"] ;
951 -> 955 ;
956 [label="Year <= 0.2\nsquared_error = 2870528.4\nsamples = 9\nvalue = 11578.0"] ;
852 -> 956 ;
957 [label="Year <= 0.0\nsquared_error = 136399.8\nsamples = 3\nvalue = 9822.9"] ;
956 -> 957 ;
958 [label="squared_error = 0.0\nsamples = 1\nvalue = 9456.0"] ;
957 -> 958 ;
959 [label="Pesticides (tonnes) <= 0.0\nsquared_error = 115592.6\nsamples = 2\nvalue = 9969.6"] ;
957 -> 959 ;
960 [label="squared_error = 0.0\nsamples = 1\nvalue = 10386.0"] ;
959 -> 960 ;
961 [label="squared_error = 0.0\nsamples = 1\nvalue = 9692.0"] ;
959 -> 961 ;
962 [label="Pesticides (tonnes) <= 0.0\nsquared_error = 737579.4\nsamples = 6\nvalue = 12943.1"] ;
956 -> 962 ;
963 [label="Pesticides (tonnes) <= 0.0\nsquared_error = 266651.7\nsamples = 5\nvalue = 13193.2"] ;
962 -> 963 ;
964 [label="Pesticides (tonnes) <= 0.0\nsquared_error = 206082.0\nsamples = 2\nvalue = 13754.0"] ;
963 -> 964 ;
965 [label="squared_error = 0.0\nsamples = 1\nvalue = 13112.0"] ;
964 -> 965 ;
966 [label="squared_error = 0.0\nsamples = 1\nvalue = 14075.0"] ;
964 -> 966 ;
967 [label="Pesticides (tonnes) <= 0.0\nsquared_error = 1130.6\nsamples = 3\nvalue = 12856.8"] ;
963 -> 967 ;
968 [label="Pesticides (tonnes) <= 0.0\nsquared_error = 18.8\nsamples = 2\nvalue = 12873.5"] ;
967 -> 968 ;
969 [label="squared_error = 0.0\nsamples = 1\nvalue = 12866.0"] ;
968 -> 969 ;
970 [label="squared_error = 0.0\nsamples = 1\nvalue = 12876.0"] ;
968 -> 970 ;
971 [label="squared_error = 0.0\nsamples = 1\nvalue = 12790.0"] ;
967 -> 971 ;
972 [label="squared_error = 0.0\nsamples = 1\nvalue = 10942.0"] ;
962 -> 972 ;
973 [label="Pesticides (tonnes) <= 0.0\nsquared_error = 16718915.4\nsamples = 8\nvalue = 12809.9"] ;
851 -> 973 ;
974 [label="squared_error = 0.0\nsamples = 1\nvalue = 4194.0"] ;
973 -> 974 ;
975 [label="Year <= 0.1\nsquared_error = 10876765.2\nsamples = 7\nvalue = 13593.2"] ;
973 -> 975 ;
976 [label="squared_error = 0.0\nsamples = 1\nvalue = 17826.0"] ;
975 -> 976 ;
977 [label="Year <= 0.2\nsquared_error = 8427546.5\nsamples = 6\nvalue = 12652.6"] ;
975 -> 977 ;
978 [label="Pesticides (tonnes) <= 0.0\nsquared_error = 1566450.0\nsamples = 2\nvalue = 9469.0"] ;
977 -> 978 ;
979 [label="squared_error = 0.0\nsamples = 1\nvalue = 8584.0"] ;
978 -> 979 ;
980 [label="squared_error = 0.0\nsamples = 1\nvalue = 11239.0"] ;
978 -> 980 ;
981 [label="Pesticides (tonnes) <= 0.0\nsquared_error = 4256825.2\nsamples = 4\nvalue = 14244.3"] ;
977 -> 981 ;
982 [label="squared_error = 0.0\nsamples = 1\nvalue = 15769.0"] ;
981 -> 982 ;
983 [label="Pesticides (tonnes) <= 0.0\nsquared_error = 4641781.5\nsamples = 3\nvalue = 13482.0"] ;
981 -> 983 ;
984 [label="squared_error = 0.0\nsamples = 1\nvalue = 9762.0"] ;
983 -> 984 ;
985 [label="Year <= 0.5\nsquared_error = 38642.0\nsamples = 2\nvalue = 14722.0"] ;
983 -> 985 ;
986 [label="squared_error = 0.0\nsamples = 1\nvalue = 15000.0"] ;
985 -> 986 ;
987 [label="squared_error = 0.0\nsamples = 1\nvalue = 14583.0"] ;
985 -> 987 ;
988 [label="Pesticides (tonnes) <= 0.0\nsquared_error = 8358597.6\nsamples = 2\nvalue = 20606.3"] ;
850 -> 988 ;
989 [label="squared_error = 0.0\nsamples = 1\nvalue = 18562.0"] ;
988 -> 989 ;
990 [label="squared_error = 0.0\nsamples = 1\nvalue = 24695.0"] ;
988 -> 990 ;
991 [label="Year <= 0.2\nsquared_error = 167854374.8\nsamples = 6\nvalue = 26189.8"] ;
849 -> 991 ;
992 [label="Year <= 0.1\nsquared_error = 31136642.0\nsamples = 3\nvalue = 12111.0"] ;
991 -> 992 ;
993 [label="Pesticides (tonnes) <= 0.0\nsquared_error = 27722.2\nsamples = 2\nvalue = 8166.5"] ;
992 -> 993 ;
994 [label="squared_error = 0.0\nsamples = 1\nvalue = 8000.0"] ;
993 -> 994 ;
995 [label="squared_error = 0.0\nsamples = 1\nvalue = 8333.0"] ;
993 -> 995 ;
996 [label="squared_error = 0.0\nsamples = 1\nvalue = 20000.0"] ;
992 -> 996 ;
997 [label="Pesticides (tonnes) <= 0.0\nsquared_error = 87554253.5\nsamples = 3\nvalue = 33229.2"] ;
991 -> 997 ;
998 [label="squared_error = 0.0\nsamples = 1\nvalue = 20000.0"] ;
997 -> 998 ;
999 [label="Pesticides (tonnes) <= 0.0\nsquared_error = 73242.2\nsamples = 2\nvalue = 39843.8"] ;
997 -> 999 ;
1000 [label="squared_error = 0.0\nsamples = 1\nvalue = 40000.0"] ;
999 -> 1000 ;
1001 [label="squared_error = 0.0\nsamples = 1\nvalue = 39375.0"] ;
999 -> 1001 ;
1002 [label="Item_Hops <= 0.5\nsquared_error = 37230887.6\nsamples = 12\nvalue = 23018.4"] ;
26 -> 1002 ;
1003 [label="Year <= 0.0\nsquared_error = 25512359.4\nsamples = 11\nvalue = 23960.5"] ;
1002 -> 1003 ;
1004 [label="squared_error = 0.0\nsamples = 1\nvalue = 34102.0"] ;
1003 -> 1004 ;
1005 [label="Pesticides (tonnes) <= 0.0\nsquared_error = 11179817.4\nsamples = 10\nvalue = 22400.2"] ;
1003 -> 1005 ;
1006 [label="squared_error = 0.0\nsamples = 1\nvalue = 16722.0"] ;
1005 -> 1006 ;
1007 [label="Pesticides (tonnes) <= 0.0\nsquared_error = 6284413.0\nsamples = 9\nvalue = 23432.6"] ;
1005 -> 1007 ;
1008 [label="Item_Oats <= 0.5\nsquared_error = 3309378.8\nsamples = 6\nvalue = 24517.5"] ;
1007 -> 1008 ;
1009 [label="Year <= 0.3\nsquared_error = 382925.7\nsamples = 3\nvalue = 22772.8"] ;
1008 -> 1009 ;
1010 [label="Year <= 0.2\nsquared_error = 38827.6\nsamples = 2\nvalue = 22429.3"] ;
1009 -> 1010 ;
1011 [label="squared_error = 0.0\nsamples = 1\nvalue = 22290.0"] ;
1010 -> 1011 ;
1012 [label="squared_error = 0.0\nsamples = 1\nvalue = 22708.0"] ;
1010 -> 1012 ;
1013 [label="squared_error = 0.0\nsamples = 1\nvalue = 23803.0"] ;
1009 -> 1013 ;
1014 [label="Year <= 0.3\nsquared_error = 147526.7\nsamples = 3\nvalue = 26262.2"] ;
1008 -> 1014 ;
1015 [label="Pesticides (tonnes) <= 0.0\nsquared_error = 600.9\nsamples = 2\nvalue = 26483.7"] ;
1014 -> 1015 ;
1016 [label="squared_error = 0.0\nsamples = 1\nvalue = 26449.0"] ;
1015 -> 1016 ;
1017 [label="squared_error = 0.0\nsamples = 1\nvalue = 26501.0"] ;
1015 -> 1017 ;
1018 [label="squared_error = 0.0\nsamples = 1\nvalue = 25598.0"] ;
1014 -> 1018 ;
1019 [label="Pesticides (tonnes) <= 0.0\nsquared_error = 2710086.2\nsamples = 3\nvalue = 20539.7"] ;
1007 -> 1019 ;
1020 [label="Item_Rye <= 0.5\nsquared_error = 19044.0\nsamples = 2\nvalue = 21701.0"] ;
1019 -> 1020 ;
1021 [label="squared_error = 0.0\nsamples = 1\nvalue = 21563.0"] ;
1020 -> 1021 ;
1022 [label="squared_error = 0.0\nsamples = 1\nvalue = 21839.0"] ;
1020 -> 1022 ;
1023 [label="squared_error = 0.0\nsamples = 1\nvalue = 18217.0"] ;
1019 -> 1023 ;
1024 [label="squared_error = 0.0\nsamples = 1\nvalue = 8887.0"] ;
1002 -> 1024 ;
1025 [label="Country_Italy <= 0.5\nsquared_error = 36739703.2\nsamples = 142\nvalue = 16940.8"] ;
25 -> 1025 ;
1026 [label="Pesticides (tonnes) <= 0.5\nsquared_error = 34765126.1\nsamples = 130\nvalue = 16365.8"] ;
1025 -> 1026 ;
1027 [label="Country_Canada <= 0.5\nsquared_error = 33342493.6\nsamples = 113\nvalue = 15630.6"] ;
1026 -> 1027 ;
1028 [label="Item_Rye <= 0.5\nsquared_error = 32390195.9\nsamples = 99\nvalue = 14936.6"] ;
1027 -> 1028 ;
1029 [label="Country_Australia <= 0.5\nsquared_error = 31193558.8\nsamples = 68\nvalue = 16057.6"] ;
1028 -> 1029 ;
1030 [label="Country_Japan <= 0.5\nsquared_error = 26766060.7\nsamples = 62\nvalue = 15447.3"] ;
1029 -> 1030 ;
1031 [label="Country_Turkey <= 0.5\nsquared_error = 26642443.3\nsamples = 48\nvalue = 14530.5"] ;
1030 -> 1031 ;
1032 [label="Year <= 0.1\nsquared_error = 26987196.2\nsamples = 44\nvalue = 14276.7"] ;
1031 -> 1032 ;
1033 [label="Country_Ukraine <= 0.5\nsquared_error = 14570104.7\nsamples = 10\nvalue = 12333.7"] ;
1032 -> 1033 ;
1034 [label="Item_Hops <= 0.5\nsquared_error = 10662178.4\nsamples = 9\nvalue = 12994.0"] ;
1033 -> 1034 ;
1035 [label="Year <= 0.0\nsquared_error = 4549473.0\nsamples = 5\nvalue = 10822.0"] ;
1034 -> 1035 ;
1036 [label="squared_error = 0.0\nsamples = 1\nvalue = 14672.0"] ;
1035 -> 1036 ;
1037 [label="Pesticides (tonnes) <= 0.0\nsquared_error = 1901967.6\nsamples = 4\nvalue = 10052.0"] ;
1035 -> 1037 ;
1038 [label="Year <= 0.1\nsquared_error = 1498176.0\nsamples = 2\nvalue = 11202.0"] ;
1037 -> 1038 ;
1039 [label="squared_error = 0.0\nsamples = 1\nvalue = 12426.0"] ;
1038 -> 1039 ;
1040 [label="squared_error = 0.0\nsamples = 1\nvalue = 9978.0"] ;
1038 -> 1040 ;
1041 [label="Pesticides (tonnes) <= 0.0\nsquared_error = 701717.6\nsamples = 2\nvalue = 9285.3"] ;
1037 -> 1041 ;
1042 [label="squared_error = 0.0\nsamples = 1\nvalue = 8693.0"] ;
1041 -> 1042 ;
1043 [label="squared_error = 0.0\nsamples = 1\nvalue = 10470.0"] ;
1041 -> 1043 ;
1044 [label="Pesticides (tonnes) <= 0.0\nsquared_error = 5543003.0\nsamples = 4\nvalue = 15600.4"] ;
1034 -> 1044 ;
1045 [label="squared_error = 0.0\nsamples = 1\nvalue = 10918.0"] ;
1044 -> 1045 ;
1046 [label="Pesticides (tonnes) <= 0.2\nsquared_error = 77232.0\nsamples = 3\nvalue = 16771.0"] ;
1044 -> 1046 ;
1047 [label="squared_error = 0.0\nsamples = 1\nvalue = 16503.0"] ;
1046 -> 1047 ;
1048 [label="Pesticides (tonnes) <= 0.4\nsquared_error = 10816.0\nsamples = 2\nvalue = 17039.0"] ;
1046 -> 1048 ;
1049 [label="squared_error = 0.0\nsamples = 1\nvalue = 16935.0"] ;
1048 -> 1049 ;
1050 [label="squared_error = 0.0\nsamples = 1\nvalue = 17143.0"] ;
1048 -> 1050 ;
1051 [label="squared_error = 0.0\nsamples = 1\nvalue = 5070.0"] ;
1033 -> 1051 ;
1052 [label="Year <= 0.1\nsquared_error = 28665626.6\nsamples = 34\nvalue = 14693.1"] ;
1032 -> 1052 ;
1053 [label="Country_Ukraine <= 0.5\nsquared_error = 43638560.6\nsamples = 3\nvalue = 22495.3"] ;
1052 -> 1053 ;
1054 [label="Pesticides (tonnes) <= 0.2\nsquared_error = 2655744.2\nsamples = 2\nvalue = 15990.7"] ;
1053 -> 1054 ;
1055 [label="squared_error = 0.0\nsamples = 1\nvalue = 13686.0"] ;
1054 -> 1055 ;
1056 [label="squared_error = 0.0\nsamples = 1\nvalue = 17143.0"] ;
1054 -> 1056 ;
1057 [label="squared_error = 0.0\nsamples = 1\nvalue = 29000.0"] ;
1053 -> 1057 ;
1058 [label="Country_Spain <= 0.5\nsquared_error = 18687235.5\nsamples = 31\nvalue = 13756.8"] ;
1052 -> 1058 ;
1059 [label="Item_Oats <= 0.5\nsquared_error = 17428870.3\nsamples = 24\nvalue = 12954.1"] ;
1058 -> 1059 ;
1060 [label="Country_Argentina <= 0.5\nsquared_error = 19947125.9\nsamples = 6\nvalue = 9229.9"] ;
1059 -> 1060 ;
1061 [label="Year <= 0.3\nsquared_error = 86372.2\nsamples = 3\nvalue = 1941.7"] ;
1060 -> 1061 ;
1062 [label="Pesticides (tonnes) <= 0.0\nsquared_error = 20306.2\nsamples = 2\nvalue = 2132.5"] ;
1061 -> 1062 ;
1063 [label="squared_error = 0.0\nsamples = 1\nvalue = 1990.0"] ;
1062 -> 1063 ;
1064 [label="squared_error = 0.0\nsamples = 1\nvalue = 2275.0"] ;
1062 -> 1064 ;
1065 [label="squared_error = 0.0\nsamples = 1\nvalue = 1560.0"] ;
1061 -> 1065 ;
1066 [label="Year <= 0.4\nsquared_error = 5693.5\nsamples = 3\nvalue = 11963.0"] ;
1060 -> 1066 ;
1067 [label="Year <= 0.3\nsquared_error = 806.6\nsamples = 2\nvalue = 11907.2"] ;
1066 -> 1067 ;
1068 [label="squared_error = 0.0\nsamples = 1\nvalue = 11893.0"] ;
1067 -> 1068 ;
1069 [label="squared_error = 0.0\nsamples = 1\nvalue = 11964.0"] ;
1067 -> 1069 ;
1070 [label="squared_error = 0.0\nsamples = 1\nvalue = 12056.0"] ;
1066 -> 1070 ;
1071 [label="Year <= 0.2\nsquared_error = 9217281.0\nsamples = 18\nvalue = 14366.7"] ;
1059 -> 1071 ;
1072 [label="Country_Ukraine <= 0.5\nsquared_error = 18326961.0\nsamples = 2\nvalue = 18665.0"] ;
1071 -> 1072 ;
1073 [label="squared_error = 0.0\nsamples = 1\nvalue = 14384.0"] ;
1072 -> 1073 ;
1074 [label="squared_error = 0.0\nsamples = 1\nvalue = 22946.0"] ;
1072 -> 1074 ;
1075 [label="Country_Argentina <= 0.5\nsquared_error = 4330739.7\nsamples = 16\nvalue = 13679.0"] ;
1071 -> 1075 ;
1076 [label="Country_Ukraine <= 0.5\nsquared_error = 2047495.8\nsamples = 10\nvalue = 12468.2"] ;
1075 -> 1076 ;
1077 [label="Pesticides (tonnes) <= 0.1\nsquared_error = 1563793.8\nsamples = 8\nvalue = 11782.0"] ;
1076 -> 1077 ;
